%YAML:1.0
---
opencv_ml_svm:
   format: 3
   svmType: C_SVC
   kernel:
      type: LINEAR
   C: 2.6699999999999999e+00
   term_criteria: { epsilon:1.1920928955078125e-07, iterations:1000 }
   var_count: 136
   class_count: 4
   class_labels: !!opencv-matrix
      rows: 4
      cols: 1
      dt: i
      data: [ 0, 3, 5, 6 ]
   sv_total: 6
   support_vectors:
      - [ -1.87021887e+00, -2.36430526e+00, -1.48509383e+00,
          -1.18094420e+00, -7.08703458e-01, -1.81072205e-01,
          7.20857307e-02, 7.61173785e-01, 1.15178037e+00, 5.16216040e-01,
          1.30705619e+00, 6.97984338e-01, 1.23148012e+00, 1.88031301e-01,
          4.65412050e-01, -4.56731200e-01, -1.38427824e-01,
          -1.10482931e-01, -5.24878085e-01, -3.80101204e-01,
          -8.79087985e-01, 3.10378964e-04, -7.75213063e-01,
          7.51046896e-01, -8.71509492e-01, 3.18424255e-01,
          -5.63824713e-01, 4.74450469e-01, -1.78292077e-02,
          -9.37667042e-02, 1.00031042e+00, -1.10160935e+00,
          1.59086215e+00, -2.07994485e+00, -1.68144608e+00,
          -1.60663843e+00, 4.35841620e-01, -8.73584569e-01,
          1.25571930e+00, 8.04242849e-01, 1.70377326e+00, 2.41463351e+00,
          3.19345331e+00, 1.50044012e+00, -2.18451118e+00,
          9.85570729e-01, -9.48655963e-01, 1.56479549e+00,
          -6.26857042e-01, 2.90600091e-01, -4.28139776e-01,
          -1.06684220e+00, 5.96192241e-01, -1.39178634e+00,
          -1.28636226e-01, 9.45196569e-01, -5.30325398e-02,
          -1.34313285e-01, -8.79711509e-02, -1.43363106e+00,
          -1.28636226e-01, -2.71444178e+00, -1.21983731e+00,
          -1.38332963e+00, -1.01340520e+00, -7.30000615e-01,
          -3.25889349e-01, -2.83047348e-01, 6.82325244e-01,
          -2.87164122e-01, 1.34843993e+00, -8.74713182e-01,
          -1.01306725e+00, -1.20215923e-01, -7.98424721e-01,
          -2.62603313e-01, -3.80113810e-01, -3.19671333e-01,
          2.53520962e-02, 2.16363326e-01, -4.15461808e-01,
          3.39242160e-01, -5.92975736e-01, 1.70089006e-01,
          -1.77699327e-01, 2.72061408e-01, -4.37195182e-01,
          -4.42846268e-02, 7.62132928e-02, -2.46911049e-01,
          6.52823389e-01, -1.70664191e-01, 9.10421386e-02,
          1.40081093e-01, -3.29316676e-01, 4.66306210e-01,
          2.80408525e+00, 2.91586542e+00, 6.65871143e-01,
          -2.37415671e-01, -3.31112295e-01, -1.02709734e+00,
          -8.31873044e-02, -1.17480421e+00, 4.92155589e-02,
          -8.64987552e-01, -3.35786492e-01, -8.75703990e-02,
          -2.04947805e+00, 3.88580036e+00, -6.80788159e-01,
          4.75644767e-01, 3.52376550e-01, 2.47895792e-01, 3.62081409e-01,
          -1.06760345e-01, 1.70923084e-01, -1.50431111e-01,
          1.62162912e+00, -3.69756259e-02, 2.95738792e+00,
          1.76133931e+00, -1.19724654e-01, -9.73214030e-01,
          -1.64338145e-02, -1.15680456e+00, -1.11385994e-02,
          -8.71343791e-01, -2.04392433e+00, 2.48474526e+00,
          2.27003336e-01, 1.21215582e+00, 2.79589951e-01, 9.78039503e-01,
          1.07366286e-01, 8.01523030e-01 ]
      - [ -1.41015160e+00, -1.34825230e+00, -6.40198648e-01,
          -3.86864930e-01, 1.93461776e-01, 1.80025071e-01,
          2.40316227e-01, 7.70103157e-01, 4.54522491e-01, 1.13327909e+00,
          5.25556445e-01, 1.20181406e+00, 2.58903682e-01, 5.22775769e-01,
          -6.69742748e-02, 2.20187172e-01, -3.95543307e-01,
          5.68121187e-02, -7.10517704e-01, 2.75250465e-01,
          -3.45193177e-01, 4.48544919e-01, -3.20649773e-01,
          4.66919452e-01, -1.92571878e-01, -7.45799318e-02,
          5.81180537e-03, -3.19914609e-01, 6.96631595e-02,
          -2.34502867e-01, 2.59799719e-01, -1.22265911e+00,
          7.00309798e-02, -2.51122808e+00, -1.16602170e+00,
          -3.14497411e-01, -4.25448656e-01, -3.44726115e-01,
          5.89805484e-01, 1.67034745e+00, 7.20304549e-01, 3.66930151e+00,
          1.57318139e+00, 3.68729424e+00, -1.73382533e+00,
          2.55986929e+00, -5.53429127e-01, 2.28074265e+00,
          -2.34982893e-01, 5.88207424e-01, 4.72492009e-01,
          -7.69563675e-01, 1.03765595e+00, -1.36989748e+00,
          -1.02209777e-01, 7.37136900e-01, -6.97688013e-02,
          2.77353764e-01, -9.01213437e-02, -1.38835490e-01,
          -1.02209777e-01, -3.94771248e-01, -7.48729348e-01,
          -1.40281618e+00, -4.37626719e-01, -6.50874436e-01,
          2.57977933e-01, 1.53719842e-01, 8.83251548e-01,
          -2.11544022e-01, 1.43360293e+00, -7.45929599e-01,
          5.72916806e-01, -1.51661411e-01, 7.72688687e-01,
          8.34635496e-01, -4.14422341e-03, 7.20224619e-01,
          3.53288412e-01, -4.85702962e-01, 3.07099432e-01,
          -1.03177023e+00, 1.15985525e+00, -9.15734231e-01,
          3.40158403e-01, -5.42201638e-01, 5.49486816e-01,
          7.70549774e-01, -1.76336944e-01, 5.71674585e-01,
          -7.94231445e-02, -4.43740577e-01, -4.76741612e-01,
          -1.30953634e+00, 3.91854912e-01, -1.19069862e+00,
          -9.29049730e-01, 2.04823807e-01, -1.23964083e+00,
          -6.48837864e-01, -7.49966562e-01, -1.11128405e-01,
          3.19233805e-01, 1.92806572e-02, 1.20374084e+00,
          -3.01947375e-03, 1.40874541e+00, -4.27683502e-01,
          8.48673522e-01, 8.16519082e-01, 3.68861228e-01,
          -3.61254215e-01, 1.22741543e-01, -5.08669019e-01,
          -6.20234609e-01, -6.61745310e-01, -1.38849854e+00,
          -8.08906019e-01, -1.31310344e+00, -1.07271600e+00,
          -1.37225461e+00, -1.58218786e-01, -7.13676572e-01,
          -1.78429091e+00, 2.26872027e-01, -1.65377164e+00,
          1.02762663e+00, -1.64477301e+00, 1.30347669e+00,
          2.01180488e-01, 2.99102604e-01, 1.20707142e+00,
          -4.60125327e-01, 1.07634747e+00, -1.35335219e+00,
          1.03555942e+00 ]
      - [ -1.96575677e+00, -1.56090677e+00, -1.11278129e+00,
          -4.24508274e-01, -4.16633874e-01, 3.13661337e-01,
          3.50219607e-01, 8.68646145e-01, 1.15734947e+00, 8.03206444e-01,
          1.33356428e+00, 6.76371634e-01, 1.38493776e+00, 3.38978976e-01,
          7.63231218e-01, 1.12035759e-01, -2.09649634e-02,
          6.57682419e-01, -7.69461572e-01, 1.59935728e-02,
          -1.08775806e+00, -1.03469625e-01, -1.30489767e+00,
          4.05443907e-01, -1.06024098e+00, 6.82181939e-02,
          -5.06445944e-01, 3.65347326e-01, 2.35796213e-01,
          4.68848228e-01, 7.47795403e-01, -4.34564084e-01,
          1.08608508e+00, -1.17761016e+00, -1.29732215e+00,
          -4.71856534e-01, 1.28768256e-03, -5.95271826e-01,
          1.06351602e+00, 1.08706152e+00, 1.45839655e+00, 2.64569306e+00,
          2.72336102e+00, 2.37185717e+00, -1.34647536e+00,
          2.50655484e+00, -4.80672628e-01, 2.41814661e+00,
          -3.27753484e-01, 8.33333731e-01, 1.61830321e-01,
          -9.27461386e-01, 7.14428604e-01, -1.21471155e+00,
          -8.14334452e-02, 1.25073659e+00, 1.30009474e-02,
          4.50603664e-01, -8.06518178e-03, -5.01911283e-01,
          -8.14334452e-02, -1.41856325e+00, -1.60293436e+00,
          -1.52853012e+00, -1.09632266e+00, -7.38360405e-01,
          -9.14171413e-02, 4.99956571e-02, 9.17312384e-01,
          -5.42207897e-01, 1.86935031e+00, -1.33740735e+00,
          -3.00800353e-01, 3.63885313e-02, -1.14923716e-01,
          -6.12790525e-01, 3.74792819e-03, -3.57725948e-01,
          4.43434060e-01, 6.96620345e-01, -1.60908625e-01,
          -1.87900588e-02, -5.48299737e-02, -2.16378048e-01,
          -3.61740857e-01, 6.97288215e-01, -6.62022769e-01,
          -3.80549490e-01, -3.33816290e-01, -1.00610256e+00,
          4.25142437e-01, -5.18751323e-01, -1.28320009e-01,
          -7.90843070e-01, -3.02792072e-01, -2.33895496e-01,
          -2.04979390e-01, 6.21579647e-01, -9.74262714e-01,
          -9.20096815e-01, -5.80576003e-01, -7.16798246e-01,
          6.65530413e-02, -1.08431828e+00, 4.21597272e-01,
          -7.99138308e-01, 1.12249565e+00, -1.37992465e+00,
          3.23511839e-01, 8.63181889e-01, 5.60550570e-01,
          -4.42723423e-01, 3.31339538e-01, 2.72924334e-01,
          6.58157915e-02, 1.89607069e-01, -4.01656389e-01,
          1.59086823e-01, -4.01482224e-01, -7.38316357e-01,
          -4.99246031e-01, -1.55812949e-01, -3.20963472e-01,
          -2.47075152e+00, 4.91448902e-02, -2.54981279e+00,
          2.87907839e-01, -2.57406950e+00, 5.15091538e-01,
          -1.69780403e-01, 2.37405404e-01, 3.07559609e+00,
          3.82688530e-02, 2.89821839e+00, -4.11374629e-01,
          2.89582562e+00 ]
      - [ 6.36315048e-01, 1.19483995e+00, 9.81478155e-01, 7.76521981e-01,
          6.75259531e-01, 2.46653125e-01, 1.65474787e-01,
          -6.12551346e-02, -2.43806541e-01, -8.00072551e-02,
          -4.62400317e-01, -3.78542751e-01, -9.49462771e-01,
          -4.87000532e-02, -6.79795325e-01, 3.23943794e-01,
          -3.83229703e-01, 3.31288189e-01, -2.70320177e-01,
          8.34790170e-01, 4.49501246e-01, 6.53140008e-01, 5.14500082e-01,
          -4.50631082e-01, 5.96240342e-01, -7.59762466e-01,
          3.80337745e-01, -1.20701230e+00, 1.56893358e-01,
          -7.77287066e-01, -5.65517664e-01, -2.69956440e-01,
          -1.11715496e+00, 1.72635168e-01, 5.63206255e-01,
          4.11363900e-01, 3.14655527e-02, 2.51466960e-01, 5.40913455e-02,
          4.23475832e-01, -2.81731397e-01, 9.44816709e-01,
          -1.11584675e+00, 1.67994153e+00, 1.15349904e-01,
          1.61855018e+00, 9.88997668e-02, 1.31459272e+00, 2.29186609e-01,
          6.55167997e-01, 7.96533942e-01, 6.61945581e-01, 4.92231846e-01,
          7.91562736e-01, -2.57423967e-01, -1.73222855e-01,
          -2.82926649e-01, 2.41622597e-01, -2.68602431e-01,
          8.07943821e-01, -2.57423967e-01, 1.45008218e+00,
          -4.72708046e-03, -4.00781363e-01, 1.31635487e-01,
          -8.18265751e-02, 2.70314723e-01, 1.46150038e-01,
          2.43965879e-01, -7.09112510e-02, 2.60468602e-01,
          -1.99664786e-01, 1.12077273e-01, -2.31701091e-01,
          2.39196390e-01, 8.34374964e-01, -5.09332418e-01,
          9.98596430e-01, -1.47969797e-01, -4.24821526e-01,
          -2.90360540e-01, -1.13647866e+00, 2.80799001e-01,
          -9.62222338e-01, 4.93881494e-01, -3.58983040e-01,
          8.29501808e-01, 9.61558938e-01, 1.97212815e-01, 9.97583807e-01,
          3.42344671e-01, -8.59227255e-02, 1.05329245e-01,
          -9.35051024e-01, 6.82888627e-01, -1.08202326e+00,
          -3.09145737e+00, -2.00860882e+00, -1.35865855e+00,
          -2.57312506e-01, -2.22588092e-01, 5.07251978e-01,
          3.86935771e-01, 5.29948771e-01, 7.61865616e-01, 3.67445767e-01,
          1.27696264e+00, -5.26296437e-01, 2.22265434e+00,
          -2.74493647e+00, 1.12611759e+00, -3.89429927e-01,
          1.13685712e-01, -2.82446861e-01, -2.47527823e-01,
          -1.99104473e-01, -6.89203978e-01, -2.47431383e-01,
          -2.08771229e+00, -5.71067631e-01, -3.52006769e+00,
          -1.31234908e+00, -3.71677250e-01, -5.46902537e-01,
          3.40156257e-01, -4.39124823e-01, 7.45111585e-01,
          -6.63085043e-01, 2.39206004e+00, -1.94178545e+00,
          1.57507077e-01, 3.68500382e-01, -2.01215029e-01,
          3.84039611e-01, -7.71467209e-01, 4.24740463e-01 ]
      - [ -6.23481154e-01, 1.14085984e+00, 3.83537412e-01,
          1.13894498e+00, 1.18648984e-01, 8.93884957e-01, 6.87647657e-03,
          5.57684958e-01, -1.23270512e-01, 1.12271830e-01,
          6.96950778e-02, -6.02993786e-01, -1.99140146e-01,
          -5.70467412e-01, -1.11763529e-01, -1.38566971e-01,
          -3.29653084e-01, 5.30143678e-01, -7.03340054e-01,
          5.90146661e-01, -9.55177397e-02, 8.74855146e-02,
          6.61265254e-02, -6.64400518e-01, 4.74993944e-01,
          -4.77171063e-01, 3.06500375e-01, -7.14484274e-01,
          3.10468860e-02, -1.39766186e-01, -4.43305105e-01,
          6.24652207e-02, -3.45201135e-01, 3.13805908e-01,
          1.80261895e-01, 6.38004184e-01, -4.07480270e-01,
          1.81357980e-01, -2.50785679e-01, -2.31970679e-02,
          -5.44314742e-01, -3.87646466e-01, -1.28680396e+00,
          5.98898590e-01, 9.10684288e-01, 1.98866904e+00, 4.18958157e-01,
          1.23696876e+00, 2.30274841e-01, 8.62045765e-01, 4.91517395e-01,
          5.50609171e-01, 1.24586700e-02, 1.05802786e+00,
          -2.36645356e-01, 6.55605793e-01, -2.34783471e-01,
          8.25949371e-01, -2.37817153e-01, 1.21316600e+00,
          -2.36645356e-01, 1.56203270e+00, -6.02441669e-01,
          -3.86340350e-01, -2.01618746e-01, -1.07142553e-01,
          2.67428547e-01, 3.06500554e-01, 4.13888872e-01,
          -1.89299643e-01, 8.13732028e-01, -4.77571726e-01,
          4.88108039e-01, -2.76188731e-01, 3.47360283e-01,
          -4.77411807e-01, 1.80406511e-01, -4.71533053e-02,
          3.68307643e-02, 6.56795025e-01, -1.09337263e-01,
          -5.50727248e-01, -4.29498032e-02, -8.11408997e-01,
          -9.54582691e-02, 9.30536926e-01, -2.93075264e-01,
          1.20203175e-01, -3.20891023e-01, -3.64777267e-01,
          -2.24510223e-01, -2.94571146e-02, -7.93311074e-02,
          -4.68431324e-01, -8.11264813e-02, -2.21630514e-01,
          -2.10232449e+00, -2.68335843e+00, -9.77249980e-01,
          -7.66474605e-01, 2.31107205e-01, 1.17409803e-01,
          4.78192031e-01, -1.78946495e-01, 4.07154441e-01,
          -1.26798064e-01, 1.41157830e+00, -1.47796309e+00,
          1.82704055e+00, -3.46602798e+00, 1.36608422e+00,
          -5.39149761e-01, 2.20487729e-01, 4.19520736e-01,
          1.15110174e-01, 6.06958508e-01, -1.11234151e-01,
          5.84236801e-01, -1.49260044e+00, -3.94601971e-01,
          -2.50278592e+00, -1.99433458e+00, 2.43935302e-01,
          -1.15130246e+00, 4.72763240e-01, -1.07093477e+00,
          3.98077995e-01, -1.28735888e+00, 1.85244584e+00,
          -2.79883862e+00, 2.16311038e-01, 1.81842744e+00,
          1.64799705e-01, 1.76981497e+00, -7.56658893e-03,
          1.93284166e+00 ]
      - [ -1.14683360e-02, -1.41668010e+00, -2.75498986e-01,
          -3.86683881e-01, -4.15455639e-01, 8.90836492e-02,
          -3.76869291e-01, 2.88131505e-01, -3.10868651e-01,
          6.85947478e-01, -3.07390183e-01, 6.26483202e-01,
          9.94895101e-01, -4.82431769e-01, 6.15192831e-01,
          -8.94909322e-01, -2.58896738e-01, -7.74265409e-01,
          -1.19521785e+00, -1.50915468e+00, -1.58780634e+00,
          -1.35855722e+00, -1.28810573e+00, 2.01042853e-02,
          -5.34155607e-01, 5.21824002e-01, -7.70269185e-02,
          1.19551980e+00, 1.55878648e-01, 8.24894369e-01, 3.83447081e-01,
          -6.80011585e-02, 5.56288302e-01, -2.59547502e-01,
          -9.78563428e-02, 3.01917121e-02, -4.93008882e-01,
          -3.43539864e-01, -6.53597176e-01, -3.06263000e-01,
          -9.84426260e-01, -1.22792315e+00, -4.26581591e-01,
          -1.99089313e+00, 5.99559784e-01, 2.50184178e-01,
          5.42463362e-01, 4.61696982e-01, 1.23228375e-02, 1.30167699e+00,
          -7.48956144e-01, 3.30864996e-01, -6.13011181e-01,
          7.69623518e-01, -3.62035245e-01, 4.31530505e-01,
          -3.05692345e-01, -4.86565270e-02, -3.22262853e-01,
          -6.29872620e-01, -3.62035245e-01, -1.37532294e+00,
          -1.00974977e+00, 1.22589581e-01, -4.13744092e-01,
          -3.15578550e-01, 2.73451239e-01, -4.27271217e-01,
          6.21639788e-01, -5.95213234e-01, 1.46767879e+00,
          -6.09755278e-01, 5.29779136e-01, 2.13264868e-01,
          -4.43839319e-02, -2.41155672e+00, 1.28036726e+00,
          -2.19955873e+00, 1.01300561e+00, 9.39528465e-01,
          6.87272787e-01, 1.30304277e+00, -2.88169891e-01,
          9.39616799e-01, -6.23574018e-01, 1.17322636e+00,
          -1.35459471e+00, -1.84089661e+00, -2.76284277e-01,
          -2.38318539e+00, 1.22356050e-01, 2.81225979e-01,
          8.52689371e-02, 1.04249227e+00, -1.01571083e+00,
          1.30805361e+00, 1.56679416e+00, 1.18815267e+00, 7.17629373e-01,
          -2.61650980e-01, 4.90323663e-01, -5.58075011e-01,
          3.72791290e-01, -1.09243345e+00, -1.66059792e-01,
          -9.32212055e-01, 6.30427301e-01, -1.08727360e+00,
          -5.62506914e-01, 1.54758084e+00, 1.34665266e-01,
          1.23769939e-01, -8.96624774e-02, 7.11284995e-01,
          2.99426258e-01, 7.68687367e-01, 2.20725954e-01, 8.13150167e-01,
          8.00675988e-01, 2.31848240e-01, 1.78673959e+00, 7.39805639e-01,
          7.28820980e-01, -2.93966770e-01, 4.61819679e-01,
          -5.94239414e-01, -1.74928933e-01, -6.80444539e-01,
          -9.59861398e-01, 7.67531276e-01, -1.17219768e-01,
          2.40846348e+00, 3.94742280e-01, 2.39403701e+00, 5.58160901e-01,
          2.51098228e+00 ]
   uncompressed_sv_total: 883
   uncompressed_support_vectors:
      - [ -9.69506085e-01, -5.98946214e-01, -1., -3.45858604e-01,
          -9.95450079e-01, -9.99586806e-02, -9.58013475e-01,
          1.26939401e-01, -8.56381774e-01, 3.33787411e-01,
          -6.90913916e-01, 5.08824289e-01, -4.87064987e-01,
          6.46171689e-01, -2.75503010e-01, 7.44565427e-01,
          -9.39658806e-02, 7.87015915e-01, 5.68135008e-02,
          7.66375422e-01, 1.90115705e-01, 6.68926418e-01, 3.17429006e-01,
          5.46162784e-01, 4.21117812e-01, 4.08559114e-01, 5.00315428e-01,
          2.62561411e-01, 5.73653102e-01, 1.05676599e-01, 6.31343722e-01,
          -6.72033504e-02, 6.51316404e-01, -2.38249406e-01,
          -5.88446319e-01, -7.64364898e-01, -4.31443304e-01,
          -8.32750380e-01, -2.51355290e-01, -8.31310213e-01,
          -7.79057369e-02, -7.80529678e-01, 6.56918064e-02,
          -6.76689506e-01, 3.21249813e-01, -6.03394628e-01,
          4.44707990e-01, -6.32787883e-01, 5.61169505e-01,
          -6.12024784e-01, 6.54659986e-01, -5.59729993e-01,
          6.82201087e-01, -4.61723894e-01, 1.61915094e-01,
          -4.14324909e-01, 1.59000695e-01, -2.71850407e-01,
          1.59781396e-01, -1.27321795e-01, 1.61915094e-01,
          1.56614091e-02, -1.02310203e-01, 9.09530818e-02,
          -1.03856400e-02, 1.27797693e-01, 8.06737393e-02,
          1.64798498e-01, 1.49971202e-01, 1.63559407e-01, 2.17773303e-01,
          1.52714193e-01, -4.30375993e-01, -5.29189527e-01,
          -3.20940912e-01, -5.68010390e-01, -2.16848597e-01,
          -5.40595174e-01, -1.47356793e-01, -4.28435087e-01,
          -2.46759906e-01, -4.37398195e-01, -3.51583213e-01,
          -4.69433397e-01, 2.86170900e-01, -3.20760608e-01,
          3.83213490e-01, -3.84482890e-01, 4.75850493e-01,
          -3.73346597e-01, 5.28674126e-01, -2.96682090e-01,
          4.62950885e-01, -2.74550706e-01, 3.71766090e-01,
          -2.88504988e-01, -3.59657198e-01, 2.68380791e-01,
          -1.77000195e-01, 2.83818185e-01, -3.90514508e-02,
          2.87442297e-01, 3.17698084e-02, 3.21842104e-01, 1.00761801e-01,
          3.11546594e-01, 1.69978604e-01, 3.49180400e-01, 2.35533699e-01,
          3.77788514e-01, 1.42214805e-01, 4.31193709e-01, 6.50449768e-02,
          4.54448402e-01, -9.23447870e-03, 4.54256296e-01,
          -8.71972367e-02, 4.32076395e-01, -2.09607601e-01,
          3.76136094e-01, -3.01957101e-01, 2.87268400e-01,
          -5.61885796e-02, 3.56359988e-01, 1.73643604e-02,
          3.81984413e-01, 8.46322104e-02, 3.85981411e-01, 1.91663906e-01,
          3.80357414e-01, 8.21259767e-02, 3.63157213e-01, 1.24190897e-02,
          3.63569707e-01, -6.25460073e-02, 3.42569500e-01 ]
      - [ -9.97653127e-01, -5.10467589e-01, -1., -2.44443297e-01,
          -9.80602622e-01, 2.03769598e-02, -9.25802886e-01,
          2.80376613e-01, -8.02819371e-01, 4.94568497e-01,
          -6.28382087e-01, 6.66762114e-01, -4.28320706e-01,
          7.87327528e-01, -2.29522899e-01, 8.84356022e-01,
          -2.64554005e-02, 9.13863599e-01, 1.67073697e-01,
          8.82384181e-01, 3.43402296e-01, 7.63864279e-01, 5.15132904e-01,
          6.32922888e-01, 6.69370413e-01, 4.64725196e-01, 7.78986394e-01,
          2.66900003e-01, 8.38430226e-01, 3.94539312e-02, 8.70217025e-01,
          -1.97439596e-01, 8.76870871e-01, -4.32758212e-01,
          -7.36411929e-01, -7.00167775e-01, -5.90634227e-01,
          -8.12319517e-01, -4.01227415e-01, -8.34194779e-01,
          -2.15219393e-01, -7.89596081e-01, -4.11256403e-02,
          -6.95856214e-01, 1.67360395e-01, -6.75256193e-01,
          3.14895809e-01, -7.48960316e-01, 4.79187697e-01,
          -7.76665270e-01, 6.33556604e-01, -7.64312685e-01,
          7.39428818e-01, -6.54346287e-01, 5.29252812e-02,
          -4.60907191e-01, 5.27438298e-02, -3.17171007e-01,
          5.26205488e-02, -1.77576393e-01, 5.29252812e-02,
          -3.09873894e-02, -1.65257499e-01, 8.71986970e-02,
          -7.07329512e-02, 1.15913503e-01, 2.96359900e-02,
          1.41382396e-01, 1.28748894e-01, 1.20113797e-01, 2.23489299e-01,
          9.04096514e-02, -5.04838586e-01, -4.97832507e-01,
          -3.94072205e-01, -5.37715912e-01, -2.78177500e-01,
          -5.26019394e-01, -1.83769599e-01, -4.32707906e-01,
          -2.94889688e-01, -4.27353501e-01, -4.12165195e-01,
          -4.45749700e-01, 2.33685300e-01, -4.16676313e-01,
          3.42190087e-01, -4.96039808e-01, 4.53650594e-01,
          -5.06993413e-01, 5.43611288e-01, -4.57371414e-01,
          4.64201301e-01, -4.14047688e-01, 3.49482387e-01,
          -4.05416310e-01, -3.77700210e-01, 3.63021314e-01,
          -2.32870802e-01, 2.91844189e-01, -8.26063603e-02,
          2.58426607e-01, 1.26754902e-02, 2.82099307e-01, 1.07994899e-01,
          2.60812700e-01, 2.31222495e-01, 2.94519097e-01, 3.34536612e-01,
          3.65206093e-01, 2.18920097e-01, 4.77425188e-01, 9.89043564e-02,
          5.32262921e-01, -5.23321517e-03, 5.41126609e-01,
          -1.10974103e-01, 5.36171675e-01, -2.48076007e-01,
          4.87669796e-01, -3.17879498e-01, 3.61951113e-01,
          -8.93885568e-02, 3.30261707e-01, 7.33440602e-03,
          3.39037389e-01, 1.02595203e-01, 3.32904905e-01, 2.78549910e-01,
          3.64567906e-01, 1.00537002e-01, 4.32751894e-01, 2.24993401e-03,
          4.42819595e-01, -9.65341628e-02, 4.39570993e-01 ]
      - [ -9.60533679e-01, -6.21464312e-01, -9.89253998e-01,
          -3.56704295e-01, -1., -1.08620100e-01, -9.89366472e-01,
          1.46370798e-01, -9.14420485e-01, 3.85626793e-01,
          -7.83440471e-01, 5.93096316e-01, -5.85036218e-01,
          7.64940023e-01, -3.57452512e-01, 8.77618611e-01,
          -1.35233298e-01, 9.34678316e-01, 5.82467690e-02,
          9.20706987e-01, 2.12772205e-01, 8.21099102e-01, 3.44389290e-01,
          6.73746228e-01, 4.38856393e-01, 4.85369593e-01, 5.10244787e-01,
          2.96748102e-01, 5.76780677e-01, 1.08083300e-01, 6.29200518e-01,
          -8.65450725e-02, 6.47865176e-01, -2.86527693e-01,
          -5.82552910e-01, -7.48439908e-01, -4.23564494e-01,
          -8.25563371e-01, -2.39462003e-01, -8.62274289e-01,
          -4.96195890e-02, -8.35241973e-01, 9.53866467e-02,
          -7.33847618e-01, 3.42814803e-01, -6.87265515e-01,
          4.55917507e-01, -7.22806692e-01, 5.81234515e-01,
          -6.92953825e-01, 6.76048577e-01, -6.19108021e-01,
          7.04577625e-01, -4.97789800e-01, 1.70771405e-01,
          -4.87718314e-01, 1.68358594e-01, -3.60499501e-01,
          1.69715703e-01, -2.32728496e-01, 1.70771405e-01,
          -9.83358175e-02, -1.03291497e-01, 1.77455693e-02,
          -5.34299901e-03, 6.30852431e-02, 9.66182575e-02,
          1.01220399e-01, 1.76828399e-01, 9.19945836e-02, 2.51499504e-01,
          6.84467480e-02, -4.32998389e-01, -5.60532629e-01,
          -3.10712814e-01, -6.04188323e-01, -1.90358907e-01,
          -5.82493126e-01, -9.87364873e-02, -4.80011702e-01,
          -2.16386497e-01, -4.75605488e-01, -3.35667610e-01,
          -5.00168324e-01, 2.74339497e-01, -4.06551301e-01,
          3.91441703e-01, -4.67356086e-01, 5.00229299e-01,
          -4.49937403e-01, 5.58239520e-01, -3.65175486e-01,
          4.85073894e-01, -3.34463000e-01, 3.77924591e-01,
          -3.59662086e-01, -3.80433798e-01, 3.42666388e-01,
          -1.92147195e-01, 2.91668892e-01, -4.12219316e-02,
          2.72236586e-01, 3.10872998e-02, 3.04578513e-01, 1.00150302e-01,
          2.95461386e-01, 1.72537804e-01, 3.47929686e-01, 2.10716695e-01,
          4.35257405e-01, 1.38451695e-01, 5.10080874e-01, 5.66320606e-02,
          5.47963381e-01, -1.71221606e-02, 5.48179686e-01,
          -9.61790085e-02, 5.31220913e-01, -2.31020197e-01,
          4.72964406e-01, -3.23687494e-01, 3.46303612e-01,
          -6.03004694e-02, 3.50629300e-01, 1.63608305e-02,
          3.64967406e-01, 8.39504078e-02, 3.70604485e-01, 1.67396903e-01,
          4.25199211e-01, 7.31418133e-02, 4.53308105e-01, 1.75555598e-03,
          4.52692091e-01, -7.27830902e-02, 4.36089993e-01 ]
      - [ -7.90312171e-01, -4.58030909e-01, -7.67527223e-01,
          -1.97591603e-01, -7.21650720e-01, 3.47939394e-02,
          -6.48004472e-01, 2.63177514e-01, -5.37193716e-01,
          4.66219991e-01, -4.10755813e-01, 6.57397628e-01,
          -2.76817292e-01, 8.20935786e-01, -1.24728903e-01,
          9.63442922e-01, 6.78053871e-02, 1., 2.71468312e-01,
          9.62681174e-01, 4.85244304e-01, 8.33466589e-01, 6.71616375e-01,
          6.55902028e-01, 8.16705525e-01, 4.41710502e-01, 9.13317204e-01,
          2.08098903e-01, 9.49586213e-01, -5.64148501e-02,
          9.53514993e-01, -3.28158587e-01, 9.39369917e-01,
          -6.11927927e-01, -7.49002576e-01, -6.60952389e-01,
          -6.81926191e-01, -7.71228790e-01, -5.37869573e-01,
          -7.96892226e-01, -3.88599098e-01, -7.65240073e-01,
          -2.56895900e-01, -7.13564277e-01, 1.89625509e-02,
          -7.50904679e-01, 1.76485002e-01, -8.33769500e-01,
          3.57601911e-01, -8.78382385e-01, 5.43585479e-01,
          -8.58261704e-01, 6.71139002e-01, -7.50267804e-01,
          -1.13979802e-01, -5.16119897e-01, -1.12702899e-01,
          -3.38670492e-01, -1.13414504e-01, -1.60438001e-01,
          -1.13979802e-01, 2.18804907e-02, -2.57879704e-01,
          9.99803469e-02, -1.71205401e-01, 1.41416699e-01,
          -6.59053028e-02, 1.70362398e-01, 4.42849398e-02,
          1.23877503e-01, 1.51285201e-01, 6.97234422e-02,
          -5.88193893e-01, -4.94738013e-01, -5.01518011e-01,
          -5.53945422e-01, -3.99216086e-01, -5.54711998e-01,
          -2.92996705e-01, -4.95353788e-01, -3.99810791e-01,
          -4.91228998e-01, -4.99773413e-01, -4.83042598e-01,
          1.92706496e-01, -5.33157885e-01, 2.88475901e-01,
          -6.05369687e-01, 3.98018509e-01, -6.17311120e-01,
          5.07609010e-01, -5.79106510e-01, 4.04404610e-01,
          -5.52963912e-01, 2.96353608e-01, -5.43267727e-01,
          -2.96060205e-01, 4.17365104e-01, -2.29288995e-01,
          3.35952312e-01, -1.21056803e-01, 3.05809110e-01,
          -1.70924198e-02, 3.18400115e-01, 8.97626430e-02,
          2.85519004e-01, 2.52070010e-01, 2.93821096e-01, 4.06568199e-01,
          3.61140698e-01, 2.88760185e-01, 5.68424106e-01, 1.43312901e-01,
          6.59681499e-01, 2.82178000e-02, 6.81574106e-01,
          -7.89285973e-02, 6.74210012e-01, -1.95028901e-01,
          5.95831871e-01, -2.49180406e-01, 4.20394510e-01,
          -1.12409100e-01, 3.68279308e-01, -1.22381300e-02,
          3.68417710e-01, 9.61601883e-02, 3.47419888e-01, 3.61314297e-01,
          3.65815997e-01, 1.24053702e-01, 5.40327430e-01, 1.35350199e-02,
          5.60974479e-01, -9.01529863e-02, 5.46589017e-01 ]
      - [ -7.50617504e-01, -4.10381913e-01, -7.51736283e-01,
          -1.93689302e-01, -7.21883118e-01, 2.90773492e-02,
          -6.71444416e-01, 2.40629002e-01, -5.91393173e-01,
          4.48792696e-01, -4.69500899e-01, 6.36915386e-01,
          -3.18799287e-01, 7.88923323e-01, -1.45606995e-01,
          9.00324821e-01, 8.63256827e-02, 9.22218919e-01, 3.20780814e-01,
          8.96166682e-01, 5.50704420e-01, 7.96311021e-01, 7.42322087e-01,
          6.32742882e-01, 8.86241019e-01, 4.22586113e-01, 9.69557405e-01,
          1.81126997e-01, 1., -7.13016018e-02, 9.99992371e-01,
          -3.25887412e-01, 9.80364919e-01, -5.79930425e-01,
          -7.64029324e-01, -5.93316317e-01, -6.91996098e-01,
          -7.20298529e-01, -5.46878517e-01, -7.43513286e-01,
          -3.95740509e-01, -7.05892384e-01, -2.57231712e-01,
          -6.41381681e-01, 4.57394915e-03, -6.72714889e-01,
          1.79879606e-01, -7.74100423e-01, 3.69943798e-01,
          -8.34029496e-01, 5.66244721e-01, -8.12535524e-01,
          7.17492819e-01, -7.03047574e-01, -1.02407798e-01,
          -4.86612886e-01, -1.03202499e-01, -3.47736508e-01,
          -1.03758201e-01, -2.06415296e-01, -1.02407798e-01,
          -5.72535805e-02, -2.75507390e-01, 7.96317086e-02,
          -1.70271903e-01, 1.12306103e-01, -6.14537783e-02,
          1.38000101e-01, 5.17588109e-02, 9.51996669e-02, 1.59418806e-01,
          5.70743792e-02, -5.94802916e-01, -4.28770393e-01,
          -5.05239129e-01, -4.75306004e-01, -3.93567801e-01,
          -4.81672496e-01, -2.94168502e-01, -4.24560010e-01,
          -3.91170204e-01, -3.99895608e-01, -5.03146529e-01,
          -3.93384188e-01, 2.01935694e-01, -4.62266594e-01,
          3.20093900e-01, -5.31767428e-01, 4.32971388e-01,
          -5.40589571e-01, 5.41363180e-01, -5.08356273e-01,
          4.45863396e-01, -4.58901495e-01, 3.31877112e-01,
          -4.49907988e-01, -3.52525294e-01, 4.08050299e-01,
          -2.48086497e-01, 3.41127396e-01, -1.32688105e-01,
          3.02746713e-01, -3.98832783e-02, 3.21715593e-01,
          7.17152506e-02, 2.87855715e-01, 2.29589805e-01, 3.12903494e-01,
          3.99520606e-01, 3.62929404e-01, 2.48479798e-01, 4.70593214e-01,
          1.03291497e-01, 5.22635818e-01, -1.56863593e-02,
          5.36214828e-01, -1.10954598e-01, 5.36884487e-01,
          -2.32203200e-01, 5.04256129e-01, -2.99998790e-01,
          4.10620987e-01, -1.25302494e-01, 3.92663985e-01,
          -3.08433101e-02, 3.94307286e-01, 8.42166170e-02,
          3.77292007e-01, 3.41521502e-01, 3.70298088e-01, 8.30202028e-02,
          3.92194808e-01, -3.09532303e-02, 4.05676007e-01,
          -1.23973399e-01, 4.06424314e-01 ]
      - [ -6.54542506e-01, -1.92017198e-01, -6.40480816e-01,
          -9.76120215e-03, -5.94526172e-01, 1.78383499e-01,
          -5.28028727e-01, 3.62085491e-01, -4.50331897e-01,
          5.23245096e-01, -3.44763398e-01, 6.52720571e-01,
          -2.04429895e-01, 7.43530214e-01, -4.69511189e-02,
          8.13481927e-01, 1.33032799e-01, 8.14039588e-01, 3.29681396e-01,
          7.74549603e-01, 5.46496928e-01, 6.94615006e-01, 7.57383227e-01,
          5.80357313e-01, 9.06411171e-01, 4.05209512e-01, 9.82613087e-01,
          1.88496903e-01, 1., -5.10147996e-02, 9.78353620e-01,
          -2.99584091e-01, 9.47968602e-01, -5.46199381e-01,
          -6.65340602e-01, -4.25466806e-01, -6.51205420e-01,
          -5.69121599e-01, -5.48071206e-01, -6.41242385e-01,
          -4.14147288e-01, -6.38893723e-01, -2.89530009e-01,
          -5.97973287e-01, -6.07236810e-02, -6.69891179e-01,
          7.67933726e-02, -7.77758896e-01, 2.44814903e-01,
          -8.35965574e-01, 4.22382891e-01, -8.00082386e-01,
          5.61214685e-01, -6.94200814e-01, -1.57091603e-01,
          -4.63268608e-01, -1.55662894e-01, -3.52874607e-01,
          -1.57195106e-01, -2.44750693e-01, -1.57091603e-01,
          -1.34153903e-01, -2.00047299e-01, 5.41160405e-02,
          -1.41349107e-01, 6.77699819e-02, -8.18969831e-02,
          5.96161298e-02, -5.10334596e-03, 3.14588696e-02,
          7.09212869e-02, 3.56304314e-04, -5.10197997e-01,
          -2.98201799e-01, -4.66468602e-01, -3.90107304e-01,
          -3.58728111e-01, -4.10667896e-01, -2.42927998e-01,
          -3.57218593e-01, -3.37507695e-01, -3.02864999e-01,
          -4.44869190e-01, -2.72258788e-01, 8.69541019e-02,
          -4.45666105e-01, 1.57426700e-01, -5.55921018e-01,
          2.77375013e-01, -5.71934581e-01, 3.89434308e-01,
          -5.20057082e-01, 3.10189307e-01, -4.55935091e-01,
          1.88820496e-01, -4.32792991e-01, -1.77498996e-01,
          4.16318595e-01, -1.43196493e-01, 3.20270598e-01,
          -8.84561166e-02, 2.67340302e-01, -3.51738110e-02,
          2.75183409e-01, 1.90445594e-02, 2.42869303e-01, 1.38902396e-01,
          2.63237089e-01, 2.97666490e-01, 3.23204607e-01, 1.76650301e-01,
          4.03198987e-01, 6.99832067e-02, 4.27353710e-01, 9.81275737e-03,
          4.38912988e-01, -4.29281183e-02, 4.46921587e-01,
          -1.09664798e-01, 4.47752088e-01, -1.35314405e-01,
          3.99400592e-01, -7.46236965e-02, 3.21305007e-01,
          -2.52285600e-02, 3.15086812e-01, 3.16875316e-02,
          2.98505515e-01, 2.49794498e-01, 3.21245313e-01, 4.67229709e-02,
          3.49203497e-01, -8.96126591e-03, 3.65988314e-01,
          -5.82771190e-02, 3.70517105e-01 ]
      - [ -9.54655409e-01, -5.67332387e-01, -9.32773888e-01,
          -3.02957505e-01, -8.81025612e-01, -4.97082584e-02,
          -8.31623316e-01, 1.92072600e-01, -7.50081122e-01,
          4.21363801e-01, -6.09588087e-01, 6.30213022e-01,
          -4.33081388e-01, 8.09863210e-01, -2.33997598e-01,
          9.49203491e-01, -2.35285908e-02, 1., 1.71814501e-01,
          9.60467994e-01, 3.45726490e-01, 8.17324877e-01, 4.90470588e-01,
          6.38884425e-01, 6.03895903e-01, 4.25818592e-01, 6.78269625e-01,
          2.08111301e-01, 7.34691679e-01, -2.02445891e-02,
          7.85165906e-01, -2.58798689e-01, 8.01342785e-01,
          -4.97912496e-01, -7.16205716e-01, -7.48953998e-01,
          -5.93112886e-01, -8.32805693e-01, -4.25039589e-01,
          -8.50104809e-01, -2.59000689e-01, -8.07378173e-01,
          -1.05212100e-01, -7.32461989e-01, 2.27579296e-01,
          -7.03836501e-01, 3.69158387e-01, -7.54443824e-01,
          5.14218807e-01, -7.86925316e-01, 6.57109499e-01,
          -7.56977677e-01, 7.43820071e-01, -6.57232583e-01,
          4.83413599e-02, -5.14231026e-01, 4.76233810e-02,
          -3.29721302e-01, 4.86674607e-02, -1.47782803e-01,
          4.83413599e-02, 3.58888507e-02, -1.39686793e-01,
          7.97023699e-02, -5.48408404e-02, 1.27179593e-01,
          4.01719697e-02, 1.70604706e-01, 1.25483498e-01, 1.39024302e-01,
          2.01778799e-01, 1.00442700e-01, -5.39631128e-01,
          -5.38428426e-01, -4.41662312e-01, -5.73438287e-01,
          -3.29852313e-01, -5.63883126e-01, -2.24984303e-01,
          -5.00134289e-01, -3.38606596e-01, -4.89038914e-01,
          -4.49865907e-01, -4.99244899e-01, 2.71830112e-01,
          -4.70358312e-01, 3.65375996e-01, -5.26599288e-01,
          4.74067807e-01, -5.27133882e-01, 5.67164123e-01,
          -4.85198110e-01, 4.80470508e-01, -4.48245406e-01,
          3.71080905e-01, -4.51189488e-01, -3.33213687e-01,
          3.39292407e-01, -2.03269094e-01, 2.83928692e-01,
          -6.27710074e-02, 2.63910413e-01, 2.10480094e-02,
          2.85743088e-01, 9.54952165e-02, 2.68223196e-01, 2.14815602e-01,
          2.98943311e-01, 3.03974003e-01, 3.72337013e-01, 2.05962896e-01,
          5.80165088e-01, 8.74088332e-02, 6.77589476e-01, 3.04700690e-03,
          6.90908372e-01, -8.84125233e-02, 6.70665026e-01,
          -2.21147701e-01, 5.64929903e-01, -2.79090196e-01,
          3.52512300e-01, -6.46938086e-02, 3.17827791e-01,
          1.97991505e-02, 3.30037385e-01, 9.40924287e-02, 3.24915111e-01,
          2.52819389e-01, 3.80837411e-01, 8.35493729e-02, 5.59561014e-01,
          6.95885997e-03, 5.71237028e-01, -8.19774568e-02,
          5.52972794e-01 ]
      - [ -9.86389279e-01, -5.11727571e-01, -9.97004092e-01,
          -2.55630314e-01, -1., 5.52902988e-04, -9.64063823e-01,
          2.64359295e-01, -8.62411618e-01, 4.90520298e-01,
          -6.98643684e-01, 6.63882494e-01, -4.83952701e-01,
          7.89626598e-01, -2.65186697e-01, 8.76108825e-01,
          -4.44883108e-02, 9.04677093e-01, 1.58899203e-01,
          8.91340613e-01, 3.29964489e-01, 8.00934196e-01, 4.76700306e-01,
          6.73068821e-01, 5.91186881e-01, 5.07614076e-01, 6.73544526e-01,
          3.17185014e-01, 7.25955009e-01, 1.16861798e-01, 7.55370080e-01,
          -8.26775879e-02, 7.75718391e-01, -2.82122701e-01,
          -7.08125830e-01, -6.61056876e-01, -5.66467106e-01,
          -8.00165474e-01, -3.64664406e-01, -8.38301301e-01,
          -1.73142701e-01, -7.80622423e-01, -2.28917110e-03,
          -6.79450572e-01, 2.14845300e-01, -6.54093802e-01,
          3.88548315e-01, -6.99591815e-01, 5.53569794e-01,
          -7.06803918e-01, 7.06038475e-01, -6.41088724e-01,
          7.53203988e-01, -4.85179603e-01, 9.95191708e-02,
          -5.07569790e-01, 9.84985828e-02, -3.65611106e-01,
          9.89941433e-02, -2.25032195e-01, 9.95191708e-02,
          -7.74462372e-02, -1.23894602e-01, 4.88794297e-02,
          -3.50674093e-02, 8.38088617e-02, 5.34536690e-02,
          1.12619899e-01, 1.27593800e-01, 1.03498198e-01, 2.03677401e-01,
          8.10254365e-02, -4.97362107e-01, -5.25664926e-01,
          -4.02361095e-01, -5.90037286e-01, -2.82930493e-01,
          -5.79188228e-01, -1.76877394e-01, -4.83705699e-01,
          -2.92166114e-01, -4.68007296e-01, -4.16440099e-01,
          -4.74703908e-01, 2.52633810e-01, -4.31596190e-01,
          3.60321492e-01, -5.13468087e-01, 4.79619592e-01,
          -4.95409191e-01, 5.60128272e-01, -4.19773310e-01,
          4.74916011e-01, -3.87135297e-01, 3.53455305e-01,
          -4.00613904e-01, -3.54512215e-01, 3.21652710e-01,
          -1.91727504e-01, 2.90375203e-01, -5.62401600e-02,
          2.79211700e-01, 2.04755906e-02, 3.08127105e-01, 9.33467969e-02,
          2.91241199e-01, 1.94791093e-01, 3.30346614e-01, 2.87852585e-01,
          3.87856692e-01, 1.85691997e-01, 4.50291902e-01, 8.14466327e-02,
          4.55842108e-01, 4.76031797e-03, 4.47027802e-01,
          -7.81437680e-02, 4.36604500e-01, -2.10758701e-01,
          4.12826687e-01, -3.02898496e-01, 3.31084102e-01,
          -6.69629425e-02, 3.49405795e-01, 1.34645002e-02,
          3.64534706e-01, 8.62824619e-02, 3.60365212e-01, 2.39839196e-01,
          3.87657404e-01, 8.55873674e-02, 3.68799299e-01, 1.28012700e-02,
          3.67529094e-01, -6.70422092e-02, 3.56130809e-01 ]
      - [ -6.63174808e-01, -3.49298894e-01, -6.47301316e-01,
          -1.40563503e-01, -6.06146514e-01, 6.65988326e-02,
          -5.28302729e-01, 2.50010788e-01, -4.27792013e-01,
          4.20210689e-01, -3.08121413e-01, 5.81547976e-01,
          -1.97752699e-01, 7.35800207e-01, -7.46769235e-02,
          8.77172291e-01, 9.37606022e-02, 9.05878186e-01, 2.78455496e-01,
          8.54118526e-01, 4.72693890e-01, 7.17026174e-01, 6.61423326e-01,
          5.49056888e-01, 8.32552314e-01, 3.57844591e-01, 9.53004718e-01,
          1.34404600e-01, 1., -1.01751700e-01, 9.94801879e-01,
          -3.43847185e-01, 9.71992016e-01, -5.87204218e-01,
          -6.90213680e-01, -5.03860772e-01, -6.44393504e-01,
          -6.18422210e-01, -5.10810971e-01, -6.57801688e-01,
          -3.61265808e-01, -6.28816128e-01, -2.29342297e-01,
          -5.73522508e-01, -7.08788782e-02, -5.82480013e-01,
          9.37061086e-02, -6.83812797e-01, 2.88424909e-01,
          -7.42531180e-01, 4.87823814e-01, -7.38613427e-01,
          6.50122821e-01, -6.57044113e-01, -1.38304695e-01,
          -4.33086097e-01, -1.35414407e-01, -2.77338296e-01,
          -1.36785105e-01, -1.24207899e-01, -1.38304695e-01,
          3.08279693e-02, -2.63413996e-01, 8.67202505e-02,
          -1.81685507e-01, 1.32325202e-01, -8.80382210e-02,
          1.57122403e-01, 1.87931899e-02, 1.05323501e-01, 1.18634902e-01,
          4.98213395e-02, -5.25033772e-01, -3.87168497e-01,
          -4.67613488e-01, -4.40013587e-01, -3.65781099e-01,
          -4.50061113e-01, -2.68712908e-01, -4.05813396e-01,
          -3.59720707e-01, -3.62735510e-01, -4.55770493e-01,
          -3.48657310e-01, 1.26903504e-01, -4.53568995e-01,
          2.12578699e-01, -5.22478223e-01, 3.22506011e-01,
          -5.29809475e-01, 4.32879686e-01, -4.97882694e-01,
          3.35093200e-01, -4.47387904e-01, 2.24922493e-01,
          -4.33543295e-01, -2.44939402e-01, 3.29198092e-01,
          -1.93761304e-01, 2.70859510e-01, -1.07474700e-01,
          2.46846497e-01, -4.31139804e-02, 2.60971189e-01,
          3.25870290e-02, 2.34979302e-01, 1.79554507e-01, 2.35294998e-01,
          3.42455506e-01, 2.68209487e-01, 2.07930699e-01, 4.33125198e-01,
          7.36495629e-02, 5.08545220e-01, -1.21996095e-02,
          5.22763371e-01, -8.50545913e-02, 5.17591417e-01,
          -1.71034306e-01, 4.60904986e-01, -1.95532203e-01,
          3.26150686e-01, -9.82014537e-02, 3.07246506e-01,
          -3.41268294e-02, 3.10612708e-01, 4.31406796e-02,
          2.93946594e-01, 2.90167093e-01, 2.74428993e-01, 5.23325317e-02,
          3.96516711e-01, -2.73236707e-02, 4.11288291e-01,
          -9.53756571e-02, 4.02033091e-01 ]
      - [ -9.94540215e-01, -5.36653876e-01, -1., -2.86837399e-01,
          -9.85189319e-01, -3.78058702e-02, -9.62314725e-01,
          2.00978801e-01, -8.89462411e-01, 4.28765297e-01,
          -7.41197824e-01, 6.26132488e-01, -5.27871609e-01,
          7.63713002e-01, -2.86482692e-01, 8.67328584e-01,
          -4.18036282e-02, 8.98639798e-01, 1.77032694e-01,
          8.58104527e-01, 3.75432312e-01, 7.52956271e-01, 5.50330520e-01,
          6.23184979e-01, 6.81764007e-01, 4.47604299e-01, 7.62689412e-01,
          2.41178393e-01, 8.06775987e-01, 2.10643597e-02, 8.31772327e-01,
          -2.05645204e-01, 8.45559299e-01, -4.41581905e-01,
          -7.38532007e-01, -5.78777611e-01, -5.70191383e-01,
          -6.65978789e-01, -3.73225898e-01, -6.97603822e-01,
          -1.89146101e-01, -6.49895608e-01, -4.14711311e-02,
          -5.50998211e-01, 1.64222702e-01, -5.50011516e-01,
          3.08556587e-01, -6.26473308e-01, 4.67477411e-01,
          -6.67343318e-01, 6.28079712e-01, -6.40016317e-01,
          7.44516373e-01, -5.37491202e-01, 6.03201017e-02,
          -4.40116793e-01, 5.95268793e-02, -2.96047896e-01,
          5.91262504e-02, -1.48146793e-01, 6.03201017e-02,
          5.14930906e-03, -1.47538006e-01, 7.13314265e-02,
          -5.90700991e-02, 1.09530397e-01, 3.75121199e-02,
          1.41958296e-01, 1.33600801e-01, 1.14160404e-01, 2.14894399e-01,
          8.02656636e-02, -5.07882476e-01, -4.61934805e-01,
          -3.91022891e-01, -4.91726100e-01, -2.86462694e-01,
          -4.88542587e-01, -1.88457593e-01, -4.26508307e-01,
          -2.90394813e-01, -4.25880402e-01, -3.93715113e-01,
          -4.30746585e-01, 2.49772504e-01, -4.25835788e-01,
          3.62235993e-01, -4.78311688e-01, 4.59483504e-01,
          -4.79426801e-01, 5.44826508e-01, -4.43828195e-01,
          4.63414997e-01, -4.19465691e-01, 3.69180501e-01,
          -4.19266105e-01, -3.94414812e-01, 3.09723288e-01,
          -2.43966505e-01, 2.48568803e-01, -8.90901014e-02,
          2.37352699e-01, 2.15681307e-02, 2.65837491e-01, 1.38980702e-01,
          2.49594405e-01, 2.63476312e-01, 2.67755002e-01, 3.65859002e-01,
          3.17860812e-01, 2.56083101e-01, 4.01262492e-01, 1.34078294e-01,
          4.49195892e-01, 1.25052100e-02, 4.57868814e-01,
          -1.07602902e-01, 4.48642701e-01, -2.59135604e-01,
          4.05161887e-01, -3.43601406e-01, 3.05209607e-01,
          -9.36456099e-02, 2.88979113e-01, 2.02372596e-02,
          3.06769699e-01, 1.38427496e-01, 2.99906194e-01, 3.24195415e-01,
          3.16153497e-01, 1.33067504e-01, 3.71659905e-01, 1.36308502e-02,
          3.80088210e-01, -1.03102900e-01, 3.69261712e-01 ]
      - [ -7.53093719e-01, -3.59477192e-01, -7.37188578e-01,
          -1.46575406e-01, -6.92676485e-01, 6.93195164e-02,
          -6.23222470e-01, 2.79708296e-01, -5.33097625e-01,
          4.86150801e-01, -4.19004887e-01, 6.75361574e-01,
          -2.76154310e-01, 8.37113023e-01, -1.15448400e-01,
          9.51437175e-01, 8.31752568e-02, 9.81300294e-01, 3.04933012e-01,
          9.45403695e-01, 5.19120395e-01, 8.31035078e-01, 7.09448814e-01,
          6.74840808e-01, 8.58641922e-01, 4.71096903e-01, 9.50263500e-01,
          2.33695805e-01, 9.86837089e-01, -2.41816100e-02, 1.,
          -2.91426688e-01, 9.84712422e-01, -5.48845410e-01,
          -7.36182094e-01, -5.82113922e-01, -7.23794401e-01,
          -7.47844577e-01, -5.99329472e-01, -8.25440824e-01,
          -4.45415407e-01, -8.29624712e-01, -3.08178514e-01,
          -7.64853776e-01, 2.65902802e-02, -7.91150212e-01,
          1.81583300e-01, -9.04265583e-01, 3.74605298e-01,
          -9.22126830e-01, 5.55139184e-01, -8.57455194e-01,
          6.77196026e-01, -7.26968825e-01, -1.22003600e-01,
          -5.37580013e-01, -1.20003402e-01, -3.86093915e-01,
          -1.21805899e-01, -2.30243102e-01, -1.22003600e-01,
          -7.07558990e-02, -2.36180693e-01, 6.47708923e-02,
          -1.57076702e-01, 8.93657729e-02, -6.93110302e-02,
          1.03478603e-01, 3.09641995e-02, 6.81018829e-02, 1.28557593e-01,
          3.32296193e-02, -5.58308423e-01, -4.13745791e-01,
          -4.96467113e-01, -4.89142090e-01, -3.83657008e-01,
          -4.96944606e-01, -2.66673386e-01, -4.26487714e-01,
          -3.75022709e-01, -3.82123202e-01, -4.90374804e-01,
          -3.71146798e-01, 1.67839795e-01, -4.78215814e-01,
          2.65213400e-01, -5.65969527e-01, 3.82445186e-01,
          -5.81724405e-01, 4.89016593e-01, -5.28007925e-01,
          4.02790695e-01, -4.72815514e-01, 2.79104799e-01,
          -4.58386809e-01, -2.66243011e-01, 4.19697911e-01,
          -1.96962804e-01, 3.48104388e-01, -1.14857502e-01,
          3.04380894e-01, -2.97885798e-02, 3.16881090e-01,
          5.36091812e-02, 2.87140489e-01, 1.93038702e-01, 3.09039414e-01,
          3.63892794e-01, 3.68448108e-01, 2.29035303e-01, 5.11031806e-01,
          1.03033297e-01, 5.71183681e-01, 1.42789902e-02, 5.90444922e-01,
          -7.67379627e-02, 5.83997905e-01, -1.68853298e-01,
          5.34673572e-01, -2.16136202e-01, 4.23789412e-01,
          -1.05581097e-01, 3.70430589e-01, -2.11863406e-02,
          3.72608215e-01, 6.52247965e-02, 3.56433511e-01, 3.09587210e-01,
          3.76332194e-01, 8.07685480e-02, 4.47954208e-01,
          -3.38458200e-03, 4.65789109e-01, -8.92423317e-02,
          4.57962006e-01 ]
      - [ -9.44413781e-01, -6.76386416e-01, -9.53419089e-01,
          -3.92768115e-01, -9.44660723e-01, -1.12068802e-01,
          -9.16096330e-01, 1.50932893e-01, -8.48846972e-01,
          3.99285197e-01, -7.17972696e-01, 6.26080394e-01,
          -5.30592322e-01, 8.10232401e-01, -3.23921204e-01,
          9.42062318e-01, -9.94627476e-02, 1., 1.21933199e-01,
          9.64680016e-01, 2.94204414e-01, 8.35034609e-01, 4.53931689e-01,
          6.63921595e-01, 5.79628706e-01, 4.60768998e-01, 6.77313685e-01,
          2.38685295e-01, 7.50809312e-01, 1.42821297e-02, 8.12310874e-01,
          -2.22293198e-01, 8.50048184e-01, -4.71656501e-01,
          -7.07441390e-01, -7.62709677e-01, -5.42967200e-01,
          -8.24799478e-01, -3.64437401e-01, -8.38776290e-01,
          -1.85725793e-01, -8.01074088e-01, -2.98789702e-02,
          -7.21121490e-01, 2.30164602e-01, -6.46588385e-01,
          3.72567505e-01, -6.91333711e-01, 5.30091286e-01,
          -6.99791014e-01, 6.73836291e-01, -6.65970027e-01,
          7.79518425e-01, -5.71825802e-01, 1.00949198e-01,
          -5.33591688e-01, 1.00211397e-01, -3.49876702e-01,
          1.01737604e-01, -1.69381306e-01, 1.00949198e-01,
          1.72655899e-02, -1.46120593e-01, 8.36580098e-02,
          -4.85938601e-02, 1.35466903e-01, 5.36299609e-02,
          1.84208795e-01, 1.53234005e-01, 1.58900306e-01, 2.44317397e-01,
          1.22726202e-01, -5.15412509e-01, -6.18358672e-01,
          -3.97827089e-01, -6.41668379e-01, -2.74732202e-01,
          -6.29138887e-01, -1.74823403e-01, -5.42717397e-01,
          -2.93823212e-01, -5.42008221e-01, -4.15882200e-01,
          -5.57059288e-01, 2.96945989e-01, -4.84171808e-01,
          4.13441300e-01, -5.32113910e-01, 5.22771180e-01,
          -5.21394014e-01, 6.10100627e-01, -4.69430208e-01,
          5.15205622e-01, -4.39547002e-01, 4.06967103e-01,
          -4.58065003e-01, -4.20506597e-01, 3.02170604e-01,
          -2.51393586e-01, 3.00801098e-01, -8.78831074e-02,
          3.09532613e-01, 1.81610007e-02, 3.47668499e-01, 1.16308197e-01,
          3.29415888e-01, 2.30127797e-01, 3.58158201e-01, 3.32819313e-01,
          4.02201295e-01, 2.03921795e-01, 5.66984773e-01, 7.43926689e-02,
          6.36685789e-01, -3.09551097e-02, 6.43866003e-01,
          -1.47343203e-01, 6.16148829e-01, -2.89497614e-01,
          5.14061689e-01, -3.75354499e-01, 3.25077415e-01,
          -1.02462500e-01, 3.94248098e-01, 6.23984821e-03,
          4.17897195e-01, 1.04825400e-01, 4.13938493e-01, 2.90514112e-01,
          4.11613107e-01, 9.06150937e-02, 4.98313099e-01,
          -1.06761800e-02, 5.08013189e-01, -1.21616900e-01,
          4.82697010e-01 ]
      - [ -9.38613772e-01, -5.69578290e-01, -9.35945988e-01,
          -2.90291488e-01, -9.03515279e-01, -2.45133098e-02,
          -8.57698321e-01, 2.29592696e-01, -7.59896815e-01,
          4.63949114e-01, -6.07314885e-01, 6.73626721e-01,
          -4.14999992e-01, 8.49802315e-01, -1.96927994e-01,
          9.74239528e-01, 3.52614298e-02, 1., 2.53736496e-01,
          9.50600207e-01, 4.46726412e-01, 8.21985781e-01, 6.26717210e-01,
          6.73422515e-01, 7.77076125e-01, 4.79343295e-01, 8.71813118e-01,
          2.52838194e-01, 9.22342122e-01, -7.58825708e-03,
          9.68723118e-01, -2.74563402e-01, 9.85296905e-01,
          -5.51611185e-01, -7.79908299e-01, -6.48669124e-01,
          -6.87572300e-01, -7.87675679e-01, -5.24750412e-01,
          -8.40867221e-01, -3.48434508e-01, -8.03807616e-01,
          -1.87355101e-01, -7.13769972e-01, 1.81130007e-01,
          -6.95161879e-01, 3.29844594e-01, -7.61347294e-01,
          4.97982800e-01, -7.85674572e-01, 6.61677718e-01,
          -7.52900600e-01, 7.84793973e-01, -6.46600425e-01,
          1.88349700e-03, -5.33423424e-01, 4.38470190e-04,
          -3.34974915e-01, 1.27428398e-03, -1.37025699e-01,
          1.88349700e-03, 6.40271381e-02, -2.13729098e-01,
          1.38595104e-01, -1.16012998e-01, 1.72013596e-01,
          -6.88899122e-03, 2.05640495e-01, 1.00819498e-01,
          1.64787903e-01, 1.98587194e-01, 1.24721698e-01,
          -5.78630686e-01, -5.53060830e-01, -4.84993488e-01,
          -6.11479998e-01, -3.70527089e-01, -6.02614284e-01,
          -2.55996287e-01, -5.09811223e-01, -3.77467901e-01,
          -5.06840706e-01, -4.88239110e-01, -5.14321625e-01,
          2.51495510e-01, -5.08154511e-01, 3.46113414e-01,
          -5.96729517e-01, 4.60140198e-01, -5.98168373e-01,
          5.65101027e-01, -5.47382116e-01, 4.68575805e-01,
          -5.15032589e-01, 3.56168211e-01, -5.08695126e-01,
          -3.68375212e-01, 3.93662214e-01, -2.34230295e-01,
          3.64131212e-01, -1.03442602e-01, 3.40667605e-01,
          -7.89276231e-03, 3.65200013e-01, 7.97232911e-02,
          3.31406593e-01, 2.17233405e-01, 3.38416696e-01, 3.59550297e-01,
          3.60538006e-01, 2.35113800e-01, 4.78838712e-01, 1.09644502e-01,
          5.42662024e-01, 8.32347106e-03, 5.60931981e-01,
          -9.46549475e-02, 5.55789471e-01, -2.30018198e-01,
          5.14055312e-01, -3.20179313e-01, 4.00207609e-01,
          -1.02374099e-01, 4.18839186e-01, -5.69663290e-03,
          4.26076114e-01, 8.44532326e-02, 4.07195687e-01, 3.07075590e-01,
          3.71780813e-01, 9.74061489e-02, 4.31787789e-01, 3.40647693e-03,
          4.48723197e-01, -9.52498168e-02, 4.42239404e-01 ]
      - [ -7.40793228e-01, -2.26872802e-01, -7.09822178e-01,
          -3.70625891e-02, -6.55212522e-01, 1.58914000e-01,
          -5.99772274e-01, 3.52743596e-01, -5.18019915e-01,
          5.49954712e-01, -3.97196114e-01, 7.18459785e-01,
          -2.43503302e-01, 8.41201186e-01, -6.53266981e-02,
          9.29241121e-01, 1.39503196e-01, 9.25861418e-01, 3.57642114e-01,
          8.79477501e-01, 5.77363729e-01, 7.83638775e-01, 7.74474323e-01,
          6.39890611e-01, 9.05615628e-01, 4.58269596e-01, 9.76360679e-01,
          2.38557398e-01, 1., -7.45457318e-03, 9.96278107e-01,
          -2.51417190e-01, 9.83755171e-01, -4.91518289e-01,
          -7.14903593e-01, -4.70826596e-01, -6.99264288e-01,
          -6.05665326e-01, -6.01240516e-01, -7.00632811e-01,
          -4.57821399e-01, -7.43723094e-01, -3.21891695e-01,
          -7.25981593e-01, -3.09579894e-02, -7.73321390e-01,
          1.26963094e-01, -8.31752419e-01, 3.09348702e-01,
          -8.40439379e-01, 4.85981196e-01, -7.86853075e-01,
          6.28623307e-01, -6.93820417e-01, -1.54351205e-01,
          -5.23796380e-01, -1.53046101e-01, -4.02824104e-01,
          -1.55048996e-01, -2.84513891e-01, -1.54351205e-01,
          -1.60913199e-01, -2.52149701e-01, 1.41371097e-02,
          -1.75575301e-01, 3.22421491e-02, -9.23739970e-02,
          3.61667611e-02, 4.47581708e-03, -5.93948789e-05,
          9.58697200e-02, -3.43598500e-02, -5.64414918e-01,
          -3.73358309e-01, -4.92334187e-01, -4.45625901e-01,
          -3.92152101e-01, -4.61498797e-01, -2.95752496e-01,
          -4.12532389e-01, -3.83473188e-01, -3.79184693e-01,
          -4.83458489e-01, -3.63028705e-01, 1.46235406e-01,
          -4.86759901e-01, 2.33787403e-01, -5.65061927e-01,
          3.41239393e-01, -5.75581074e-01, 4.51827586e-01,
          -5.37206113e-01, 3.58517289e-01, -4.96006191e-01,
          2.50014096e-01, -4.82308209e-01, -2.72450209e-01,
          4.29035008e-01, -2.15731204e-01, 3.06849301e-01,
          -1.15771599e-01, 2.37196296e-01, -3.28595713e-02,
          2.42572099e-01, 5.55187203e-02, 2.04705298e-01, 2.22796798e-01,
          2.28437304e-01, 3.91693413e-01, 3.07092994e-01, 2.74747491e-01,
          4.55939412e-01, 1.30080998e-01, 5.37589729e-01, 3.36074494e-02,
          5.65965474e-01, -5.31081408e-02, 5.75679600e-01,
          -1.69037104e-01, 5.49482584e-01, -2.32291505e-01,
          4.16465700e-01, -9.95359868e-02, 3.01959902e-01,
          -2.06988808e-02, 2.91190892e-01, 7.01432899e-02,
          2.68905789e-01, 3.47831488e-01, 3.11686695e-01, 1.04589798e-01,
          4.44421113e-01, 1.25007099e-02, 4.67119604e-01,
          -7.16950819e-02, 4.70908910e-01 ]
      - [ -9.98802125e-01, -4.87065285e-01, -1., -2.50266701e-01,
          -9.73897278e-01, -1.00383097e-02, -9.27218318e-01,
          2.20124006e-01, -8.23004782e-01, 4.27605212e-01,
          -6.77125812e-01, 5.92519224e-01, -4.78890598e-01,
          7.12594688e-01, -2.76908994e-01, 8.18267226e-01,
          -6.89453632e-02, 8.52448821e-01, 1.33896098e-01,
          8.23624790e-01, 3.17058712e-01, 7.04640329e-01, 5.02489388e-01,
          5.75753927e-01, 6.40173018e-01, 4.18551713e-01, 7.16568291e-01,
          2.34409705e-01, 7.62368679e-01, 3.29876989e-02, 7.97824502e-01,
          -1.66408002e-01, 8.11704397e-01, -3.65912914e-01,
          -7.75048912e-01, -6.37909472e-01, -6.17232084e-01,
          -7.30051696e-01, -4.30495590e-01, -7.60392725e-01,
          -2.47419402e-01, -7.21371889e-01, -7.63401911e-02,
          -6.29203677e-01, 2.69244492e-01, -5.79723477e-01,
          4.06109989e-01, -6.33313715e-01, 5.51465988e-01,
          -6.56751871e-01, 6.89304113e-01, -6.34900212e-01,
          7.76994526e-01, -5.34384906e-01, 6.50750324e-02,
          -4.15596485e-01, 6.40773177e-02, -2.91343808e-01,
          6.44195527e-02, -1.67574003e-01, 6.50750324e-02,
          -4.20061909e-02, -1.09638698e-01, 6.55204728e-02,
          -3.76408100e-02, 8.03416967e-02, 3.75548601e-02,
          9.81263891e-02, 1.08888596e-01, 8.65357220e-02, 1.78615898e-01,
          7.18938187e-02, -5.19294024e-01, -4.50393289e-01,
          -4.03484792e-01, -4.84939098e-01, -2.90549099e-01,
          -4.80194986e-01, -1.95737898e-01, -4.06932801e-01,
          -3.06446701e-01, -4.00078714e-01, -4.20840710e-01,
          -4.10981387e-01, 2.75597304e-01, -3.58976185e-01,
          3.81671190e-01, -4.14809406e-01, 4.86670911e-01,
          -4.09606606e-01, 5.68430185e-01, -3.59074593e-01,
          4.83249694e-01, -3.34273696e-01, 3.75986487e-01,
          -3.40619802e-01, -3.43192309e-01, 2.90228188e-01,
          -1.79713205e-01, 2.58590996e-01, -3.88035811e-02,
          2.18683094e-01, 2.90792994e-02, 2.34358206e-01, 9.36392769e-02,
          2.24103495e-01, 1.94017902e-01, 2.59844095e-01, 2.99496502e-01,
          3.15878689e-01, 1.84955105e-01, 4.34366614e-01, 7.80425072e-02,
          4.89185393e-01, 3.42468102e-03, 4.97437596e-01,
          -7.37563372e-02, 4.88779485e-01, -2.04194605e-01,
          4.38174993e-01, -2.84616411e-01, 3.01689088e-01,
          -4.73209284e-02, 2.76912808e-01, 2.39590202e-02,
          2.85614699e-01, 8.71436596e-02, 2.83038914e-01, 2.48657897e-01,
          3.18871200e-01, 8.67171064e-02, 3.77800286e-01, 2.00022496e-02,
          3.82843196e-01, -5.30904196e-02, 3.72749507e-01 ]
      - [ -6.61032081e-01, -3.56714487e-01, -6.56049609e-01,
          -1.49691999e-01, -5.99862993e-01, 5.04398905e-02,
          -5.17095625e-01, 2.33112201e-01, -4.23230410e-01,
          4.07173514e-01, -3.19596410e-01, 5.68008125e-01,
          -2.00594097e-01, 7.00426280e-01, -7.33237565e-02,
          8.12779725e-01, 9.46818367e-02, 8.49402308e-01, 2.94245988e-01,
          8.30995917e-01, 5.16817808e-01, 7.35971212e-01, 7.18600214e-01,
          5.97555578e-01, 8.73395085e-01, 4.13812488e-01, 9.70250428e-01,
          1.95631698e-01, 1., -5.21761701e-02, 9.94221330e-01,
          -3.15243214e-01, 9.64988291e-01, -5.78312218e-01,
          -7.24471927e-01, -5.96860111e-01, -6.71020627e-01,
          -7.18349278e-01, -5.42584121e-01, -7.54615009e-01,
          -4.08722490e-01, -7.26389885e-01, -2.86452591e-01,
          -6.58233881e-01, -6.70606270e-02, -6.87209189e-01,
          8.07058886e-02, -7.92642117e-01, 2.58829802e-01,
          -8.50647211e-01, 4.53498095e-01, -8.37657928e-01,
          5.98837376e-01, -7.44771779e-01, -1.55142993e-01,
          -4.72094297e-01, -1.52341306e-01, -3.10433894e-01,
          -1.53790995e-01, -1.45117402e-01, -1.55142993e-01,
          2.02306900e-02, -2.29853705e-01, 1.21826202e-01,
          -1.61764994e-01, 1.47987306e-01, -8.41343328e-02,
          1.62015796e-01, 8.12358875e-03, 1.32490605e-01, 1.01300299e-01,
          1.05719998e-01, -5.79282582e-01, -4.27135289e-01,
          -5.16119003e-01, -4.86447603e-01, -4.07443792e-01,
          -4.87089515e-01, -2.91174114e-01, -4.14725989e-01,
          -4.02595997e-01, -3.87269288e-01, -5.13097525e-01,
          -3.80920112e-01, 1.18568599e-01, -4.60072905e-01,
          1.95385605e-01, -5.50783575e-01, 3.14514995e-01,
          -5.67736328e-01, 4.31998700e-01, -5.34171999e-01,
          3.36869806e-01, -4.74074394e-01, 2.17023507e-01,
          -4.53037500e-01, -2.10472494e-01, 3.88962388e-01,
          -1.78900197e-01, 3.36450607e-01, -1.09068103e-01,
          3.02649796e-01, -3.50959785e-02, 3.20591688e-01,
          4.31325883e-02, 2.93172389e-01, 1.96374103e-01, 3.20449501e-01,
          3.87726188e-01, 3.44965309e-01, 2.51963794e-01, 5.10507524e-01,
          1.12782098e-01, 5.74417114e-01, 2.17445791e-02, 5.88200688e-01,
          -5.70886992e-02, 5.76402485e-01, -1.35718703e-01,
          5.13636529e-01, -1.57924697e-01, 3.96390498e-01,
          -9.57451686e-02, 3.78227592e-01, -2.32190192e-02,
          3.82113308e-01, 5.99209182e-02, 3.72920692e-01, 3.35967898e-01,
          3.56039613e-01, 8.25409964e-02, 4.41750914e-01,
          -1.36664102e-03, 4.49935913e-01, -7.74272978e-02,
          4.37261313e-01 ]
      - [ -9.35372889e-01, -3.37595999e-01, -9.41725016e-01,
          -1.18138701e-01, -9.19130504e-01, 9.97390971e-02,
          -8.74046683e-01, 3.05922806e-01, -7.66545177e-01,
          4.99952406e-01, -6.08493388e-01, 6.66410089e-01,
          -4.03120995e-01, 7.84662783e-01, -2.03792304e-01,
          8.82942617e-01, 4.41539520e-03, 9.14000511e-01, 2.00025797e-01,
          9.03173089e-01, 3.96508694e-01, 8.34573090e-01, 6.00245714e-01,
          7.32819080e-01, 7.71516979e-01, 5.84672928e-01, 8.97383213e-01,
          3.92014205e-01, 9.65655029e-01, 1.67964697e-01, 1.,
          -6.84709698e-02, 9.96709585e-01, -2.98883498e-01,
          -7.32278407e-01, -6.68764114e-01, -6.19382977e-01,
          -7.68255591e-01, -4.70665514e-01, -8.04751217e-01,
          -3.12236905e-01, -7.84579575e-01, -1.64232999e-01,
          -7.09522188e-01, 1.58728004e-01, -7.07669318e-01,
          3.24467689e-01, -7.75164187e-01, 4.94138509e-01,
          -7.84246504e-01, 6.51760578e-01, -7.21843481e-01,
          7.71827221e-01, -6.06670380e-01, -1.32784204e-04,
          -5.32776713e-01, 1.19278902e-05, -4.11939591e-01,
          9.82276862e-04, -2.94405013e-01, -1.32784204e-04,
          -1.71614200e-01, -1.86272696e-01, 2.79233102e-02,
          -9.46056619e-02, 4.69729193e-02, -1.14706100e-03,
          5.87692894e-02, 8.54430720e-02, 4.92119789e-02, 1.67555094e-01,
          3.89136113e-02, -5.40874779e-01, -4.89691705e-01,
          -4.44530010e-01, -5.76029480e-01, -3.21314305e-01,
          -5.66836476e-01, -2.25825399e-01, -4.51884001e-01,
          -3.35648298e-01, -4.37530786e-01, -4.56118286e-01,
          -4.46898490e-01, 2.24761605e-01, -4.44740593e-01,
          3.25385213e-01, -5.63459694e-01, 4.48613614e-01,
          -5.58767200e-01, 5.53601384e-01, -4.69318986e-01,
          4.58793402e-01, -4.30299193e-01, 3.33407491e-01,
          -4.27473813e-01, -3.94545496e-01, 3.24750692e-01,
          -2.44294807e-01, 2.77001798e-01, -1.02485701e-01,
          2.48790205e-01, -1.73047800e-02, 2.69330412e-01,
          7.18741864e-02, 2.46823400e-01, 2.19420195e-01, 2.86879599e-01,
          3.71040195e-01, 3.44485700e-01, 2.27072403e-01, 4.67000812e-01,
          8.47717077e-02, 5.27371526e-01, -1.50567899e-02,
          5.36067784e-01, -1.06996201e-01, 5.28340518e-01,
          -2.47729093e-01, 4.65206712e-01, -3.41924310e-01,
          3.38357210e-01, -1.03048898e-01, 3.21743488e-01,
          -1.78148001e-02, 3.31857294e-01, 7.35067204e-02,
          3.22964698e-01, 3.12451512e-01, 3.53084087e-01, 7.70815909e-02,
          4.13207799e-01, -1.63300000e-02, 4.21735793e-01,
          -1.03999197e-01, 4.12582487e-01 ]
      - [ -9.85514224e-01, -5.72000623e-01, -1., -3.00767988e-01,
          -9.98491406e-01, -3.24925818e-02, -9.70880687e-01,
          2.22324699e-01, -8.76250207e-01, 4.52955604e-01,
          -7.15625107e-01, 6.50105715e-01, -5.12769222e-01,
          8.07872474e-01, -2.89703190e-01, 9.17644382e-01,
          -7.15943202e-02, 9.49484587e-01, 1.22508101e-01,
          9.13909316e-01, 2.75495887e-01, 7.74065614e-01, 4.17300403e-01,
          6.24361575e-01, 5.38303494e-01, 4.46743697e-01, 6.27310872e-01,
          2.52899706e-01, 6.92422509e-01, 5.13115190e-02, 7.40639210e-01,
          -1.49586394e-01, 7.70317018e-01, -3.55842412e-01,
          -6.81453824e-01, -6.85784578e-01, -5.27688801e-01,
          -8.24863791e-01, -3.15690190e-01, -8.58033776e-01,
          -1.02627397e-01, -8.23569417e-01, 8.39216635e-02,
          -7.23273695e-01, 2.20065400e-01, -7.02029228e-01,
          3.72567713e-01, -7.53750980e-01, 5.40599704e-01,
          -7.56984293e-01, 6.89179599e-01, -7.01602876e-01,
          7.44632781e-01, -5.56352615e-01, 1.26066893e-01,
          -5.09534121e-01, 1.23746097e-01, -3.71203691e-01,
          1.24576896e-01, -2.34794900e-01, 1.26066893e-01,
          -8.88922215e-02, -1.16869599e-01, 4.45028692e-02,
          -2.59104092e-02, 8.38166624e-02, 6.72287866e-02,
          1.15064502e-01, 1.49805307e-01, 1.00768603e-01, 2.21654698e-01,
          6.84899911e-02, -4.88220513e-01, -5.34008086e-01,
          -3.75838012e-01, -5.84972501e-01, -2.57367790e-01,
          -5.69444716e-01, -1.63507298e-01, -4.79640692e-01,
          -2.68687189e-01, -4.68060195e-01, -3.90576005e-01,
          -4.83560205e-01, 2.76396096e-01, -4.34347093e-01,
          3.80715787e-01, -5.01906216e-01, 4.90488499e-01,
          -4.93039310e-01, 5.61892271e-01, -4.22883213e-01,
          4.85851586e-01, -3.86387199e-01, 3.74986112e-01,
          -3.99701893e-01, -3.36757302e-01, 3.73082697e-01,
          -1.92005098e-01, 2.92677402e-01, -5.67115694e-02,
          2.68385112e-01, 2.69015599e-02, 2.96940714e-01, 1.05571203e-01,
          2.81701595e-01, 1.84673801e-01, 3.23170304e-01, 2.26436302e-01,
          4.20769811e-01, 1.58772305e-01, 5.32318890e-01, 7.31453672e-02,
          5.81349015e-01, -1.37583902e-02, 5.86648881e-01,
          -1.04672603e-01, 5.72693288e-01, -2.23618403e-01,
          5.16768575e-01, -2.78313994e-01, 3.69292289e-01,
          -6.56497329e-02, 3.46755594e-01, 1.89178903e-02,
          3.62193704e-01, 9.82580110e-02, 3.57840389e-01, 1.70294493e-01,
          4.13674206e-01, 8.21565837e-02, 4.60211694e-01, 5.83596993e-05,
          4.69723701e-01, -8.31737965e-02, 4.56791908e-01 ]
      - [ -1., -6.10256910e-01, -9.94170487e-01, -3.23186904e-01,
          -9.57450986e-01, -4.03881818e-02, -8.89441788e-01,
          2.13062495e-01, -7.72441387e-01, 4.33836699e-01,
          -6.10486388e-01, 6.11005127e-01, -4.18266803e-01,
          7.52565086e-01, -2.31421098e-01, 8.64176989e-01,
          -2.70606503e-02, 9.03043389e-01, 1.80005193e-01,
          8.72881174e-01, 3.74747813e-01, 7.50712395e-01, 5.68390906e-01,
          6.03686571e-01, 7.29345977e-01, 4.17851508e-01, 8.46762180e-01,
          2.03876406e-01, 9.19349015e-01, -3.00327800e-02,
          9.55281615e-01, -2.88780302e-01, 9.70831513e-01,
          -5.62595308e-01, -8.13380599e-01, -6.71874583e-01,
          -6.56067789e-01, -7.61211812e-01, -4.56245810e-01,
          -7.43416011e-01, -2.79534787e-01, -6.62893176e-01,
          -1.19733997e-01, -5.78337610e-01, 1.59637004e-01,
          -5.75662315e-01, 3.27606589e-01, -6.44357681e-01,
          4.97659385e-01, -7.09385991e-01, 6.78515017e-01,
          -7.22396791e-01, 8.18467081e-01, -6.30730689e-01,
          1.82595309e-02, -4.49384302e-01, 1.74183194e-02,
          -2.73788691e-01, 1.75504703e-02, -9.93416309e-02,
          1.82595309e-02, 7.39564821e-02, -1.95111603e-01,
          1.01874597e-01, -9.72250178e-02, 1.47232696e-01,
          7.91098271e-03, 1.88773796e-01, 1.14305399e-01, 1.52915493e-01,
          2.09746197e-01, 1.11186400e-01, -5.93219519e-01,
          -5.10595381e-01, -4.76319909e-01, -5.37127078e-01,
          -3.54232013e-01, -5.25578380e-01, -2.39299595e-01,
          -4.50864613e-01, -3.70062888e-01, -4.55165505e-01,
          -4.89457786e-01, -4.66293514e-01, 2.54278213e-01,
          -4.33026195e-01, 3.65304112e-01, -5.00345528e-01,
          4.88613695e-01, -5.05058289e-01, 6.05105579e-01,
          -4.73094791e-01, 4.95196015e-01, -4.37439114e-01,
          3.75277013e-01, -4.28594202e-01, -3.75032306e-01,
          3.18037897e-01, -2.27375701e-01, 3.02696705e-01,
          -8.81957635e-02, 2.95110106e-01, 9.45416465e-03,
          3.22061002e-01, 1.08235799e-01, 3.02887410e-01, 2.35158101e-01,
          3.15735996e-01, 3.67346108e-01, 3.34328711e-01, 2.29725897e-01,
          4.59930092e-01, 1.02905400e-01, 5.29878199e-01,
          -5.55715011e-03, 5.39767027e-01, -1.10421397e-01,
          5.24906218e-01, -2.38300398e-01, 4.52879310e-01,
          -3.16020787e-01, 3.35825413e-01, -9.08569172e-02,
          3.45937192e-01, 6.41421415e-03, 3.64334196e-01, 1.06536798e-01,
          3.52974206e-01, 3.10423911e-01, 3.48316789e-01, 1.01132303e-01,
          4.13990498e-01, -3.09430296e-04, 4.25797105e-01,
          -9.84565392e-02, 4.13171113e-01 ]
      - [ -5.90925813e-01, -3.44066113e-01, -5.80207288e-01,
          -1.55051500e-01, -5.29798090e-01, 3.38074192e-02,
          -4.67015088e-01, 2.16723695e-01, -3.95325810e-01,
          3.98737490e-01, -3.00658494e-01, 5.85941374e-01,
          -1.89524502e-01, 7.49513507e-01, -6.57189414e-02,
          8.73017013e-01, 1.04119003e-01, 8.96174073e-01, 3.05236310e-01,
          8.63013089e-01, 5.22238910e-01, 7.63732016e-01, 7.13522315e-01,
          5.99919379e-01, 8.67085516e-01, 3.88915896e-01, 9.72500205e-01,
          1.43660396e-01, 1., -1.18092597e-01, 9.72047687e-01,
          -3.81796807e-01, 9.27575290e-01, -6.45468414e-01,
          -6.26643181e-01, -5.17583370e-01, -6.11904383e-01,
          -6.17983282e-01, -5.08732498e-01, -6.44098818e-01,
          -3.93293589e-01, -6.12385273e-01, -2.88801014e-01,
          -5.70004880e-01, -5.76289594e-02, -6.25366211e-01,
          6.70892298e-02, -7.21693695e-01, 2.16271594e-01,
          -7.92326212e-01, 3.90333205e-01, -7.93845415e-01,
          5.44160604e-01, -7.40725696e-01, -1.62423104e-01,
          -4.65138793e-01, -1.59566298e-01, -3.19443703e-01,
          -1.61249906e-01, -1.73680201e-01, -1.62423104e-01,
          -2.43855305e-02, -2.29259506e-01, 9.06424671e-02,
          -1.62759393e-01, 1.22825302e-01, -8.83729011e-02,
          1.34757206e-01, 9.38804005e-04, 1.02303296e-01, 8.56219381e-02,
          6.84592873e-02, -5.07654011e-01, -3.99790198e-01,
          -4.58315104e-01, -4.52781498e-01, -3.67355794e-01,
          -4.67431694e-01, -2.67395109e-01, -4.25539613e-01,
          -3.55652899e-01, -3.95036101e-01, -4.42332298e-01,
          -3.76630008e-01, 1.07640199e-01, -4.96185988e-01,
          1.89430207e-01, -5.74239194e-01, 2.92173892e-01,
          -5.88321686e-01, 3.96670699e-01, -5.62907815e-01,
          3.09493005e-01, -5.14533579e-01, 2.07694605e-01,
          -4.95161295e-01, -1.87462598e-01, 4.08047795e-01,
          -1.76905200e-01, 3.28688204e-01, -1.20787300e-01,
          2.86635101e-01, -4.83911894e-02, 3.03530186e-01,
          2.75763795e-02, 2.72743702e-01, 1.65992796e-01, 3.03186208e-01,
          3.18773806e-01, 3.53510588e-01, 1.96428701e-01, 4.75472093e-01,
          7.29821771e-02, 5.30903876e-01, -1.11624701e-02,
          5.50743282e-01, -8.72780234e-02, 5.44831872e-01,
          -1.46078095e-01, 4.98798996e-01, -1.47139505e-01,
          4.04986411e-01, -1.05624199e-01, 3.74097407e-01,
          -3.64664905e-02, 3.73309106e-01, 4.40765694e-02,
          3.60623688e-01, 2.67014086e-01, 3.60437602e-01, 4.86264490e-02,
          4.09042686e-01, -3.13744098e-02, 4.22963113e-01,
          -1.03708498e-01, 4.16999698e-01 ]
      - [ -9.91397381e-01, -5.80365419e-01, -1., -2.97587812e-01,
          -9.83957410e-01, -2.71786507e-02, -9.30810511e-01,
          2.33786404e-01, -8.30227971e-01, 4.68446404e-01,
          -6.75026000e-01, 6.81581616e-01, -4.71507102e-01,
          8.50889087e-01, -2.56494612e-01, 9.54406679e-01,
          -4.33878191e-02, 9.99135315e-01, 1.64981201e-01,
          9.56515074e-01, 3.54478300e-01, 8.39106977e-01, 5.29189110e-01,
          6.91927314e-01, 6.72138274e-01, 5.04193127e-01, 7.87433326e-01,
          2.87874103e-01, 8.68607521e-01, 5.91483191e-02, 9.16140497e-01,
          -1.85564607e-01, 9.35703814e-01, -4.39152688e-01,
          -7.40447581e-01, -8.06114912e-01, -6.07275009e-01,
          -9.02251005e-01, -4.37682897e-01, -9.25922990e-01,
          -2.60927588e-01, -8.90809476e-01, -1.07032299e-01,
          -8.13748896e-01, 2.34055400e-01, -8.02045107e-01,
          3.80537212e-01, -8.57104123e-01, 5.45988381e-01,
          -8.73364389e-01, 6.99649990e-01, -8.27747822e-01,
          7.88995802e-01, -7.14260399e-01, 5.44867814e-02,
          -5.31705499e-01, 5.37585095e-02, -3.54342401e-01,
          5.52339591e-02, -1.79679900e-01, 5.44867814e-02,
          -5.32737700e-03, -1.54901594e-01, 1.08778700e-01,
          -6.68787286e-02, 1.36866793e-01, 2.57976707e-02,
          1.62379101e-01, 1.17198899e-01, 1.46946207e-01, 1.95989102e-01,
          1.24544397e-01, -5.46231389e-01, -5.66177011e-01,
          -4.35053289e-01, -5.93298674e-01, -3.21356595e-01,
          -5.85300624e-01, -2.13742405e-01, -5.21879375e-01,
          -3.28920990e-01, -5.20875216e-01, -4.43916112e-01,
          -5.28214574e-01, 2.65700907e-01, -4.87363607e-01,
          3.79363209e-01, -5.40787220e-01, 4.91743386e-01,
          -5.33046484e-01, 5.92592120e-01, -4.91554499e-01,
          4.90395486e-01, -4.63801414e-01, 3.78347814e-01,
          -4.71213788e-01, -3.27329993e-01, 4.18969303e-01,
          -2.01016203e-01, 3.51018608e-01, -7.40885809e-02,
          3.21461201e-01, 1.59552204e-03, 3.50249887e-01, 8.01354274e-02,
          3.32587302e-01, 1.81686103e-01, 3.78424406e-01, 2.85336614e-01,
          4.58879501e-01, 1.77033097e-01, 5.70231676e-01, 7.17039332e-02,
          6.17058694e-01, -1.32921496e-02, 6.21415496e-01,
          -9.39963832e-02, 6.02496922e-01, -2.14701101e-01,
          5.42226195e-01, -2.76353389e-01, 4.20176089e-01,
          -7.79744834e-02, 4.09663707e-01, -3.89348809e-03,
          4.21855599e-01, 7.52549991e-02, 4.17809486e-01, 2.36702204e-01,
          4.52293396e-01, 7.47591481e-02, 4.77303296e-01,
          -5.28046582e-03, 4.80576396e-01, -8.20980519e-02,
          4.66563493e-01 ]
      - [ -6.80934310e-01, -4.16259289e-01, -6.61072671e-01,
          -2.06802607e-01, -6.05332315e-01, -2.21217610e-03,
          -5.24430811e-01, 1.87514007e-01, -4.31375414e-01,
          3.66339296e-01, -3.26993108e-01, 5.32633126e-01,
          -1.99142799e-01, 6.69197202e-01, -6.12046495e-02,
          7.83453703e-01, 1.06622502e-01, 8.11805308e-01, 2.95125514e-01,
          7.75869489e-01, 5.11731625e-01, 6.73154473e-01, 7.18327820e-01,
          5.20735025e-01, 8.68786216e-01, 3.15734804e-01, 9.57243085e-01,
          8.30047131e-02, 9.92964327e-01, -1.64379001e-01, 1.,
          -4.30552214e-01, 9.73719716e-01, -7.03428507e-01,
          -6.92760885e-01, -5.40406525e-01, -6.18162811e-01,
          -6.04458213e-01, -4.99349803e-01, -6.01277590e-01,
          -3.86827588e-01, -5.67768097e-01, -2.77372599e-01,
          -5.28667510e-01, -5.50649017e-02, -5.71659327e-01,
          1.02638297e-01, -6.55867279e-01, 2.67818213e-01,
          -7.24721909e-01, 4.50825304e-01, -7.59487987e-01,
          6.24840677e-01, -7.15589821e-01, -1.57309294e-01,
          -4.20430213e-01, -1.54229403e-01, -2.81648189e-01,
          -1.55811593e-01, -1.43609002e-01, -1.57309294e-01,
          -1.22863404e-03, -2.32259303e-01, 1.07646398e-01,
          -1.67506099e-01, 1.33025497e-01, -9.15014073e-02,
          1.46834806e-01, -1.50935596e-03, 1.14030100e-01,
          9.22601223e-02, 8.01076815e-02, -5.42661190e-01,
          -3.90288591e-01, -4.81726289e-01, -4.44420010e-01,
          -3.85416389e-01, -4.47735101e-01, -2.72989094e-01,
          -3.87400806e-01, -3.82802308e-01, -3.64688814e-01,
          -4.79296088e-01, -3.54899287e-01, 1.26299307e-01,
          -4.41760391e-01, 2.03239307e-01, -5.29847980e-01,
          3.12684089e-01, -5.47001779e-01, 4.32553798e-01,
          -5.24544179e-01, 3.33484590e-01, -4.68111098e-01,
          2.25090995e-01, -4.44817007e-01, -2.57699609e-01,
          3.81593496e-01, -2.00648099e-01, 3.43568712e-01,
          -1.16027802e-01, 3.11980009e-01, -3.97714302e-02,
          3.22009891e-01, 3.97905596e-02, 2.87603706e-01, 1.91527605e-01,
          2.87277997e-01, 3.69008303e-01, 3.03587705e-01, 2.34114304e-01,
          4.78473902e-01, 1.00349501e-01, 5.55073380e-01, 8.67406279e-03,
          5.73144972e-01, -7.49853030e-02, 5.71531415e-01,
          -1.67516202e-01, 5.10261178e-01, -2.16239601e-01,
          3.90188992e-01, -1.07554004e-01, 3.59808713e-01,
          -3.27535905e-02, 3.57639909e-01, 5.10227308e-02,
          3.37945908e-01, 3.20477605e-01, 3.17539990e-01, 7.92884305e-02,
          4.55285698e-01, -8.08834843e-03, 4.71502692e-01,
          -8.68730694e-02, 4.68864590e-01 ]
      - [ -9.79484379e-01, -5.00565112e-01, -9.71644282e-01,
          -2.43506894e-01, -9.30344880e-01, 1.24551598e-02,
          -8.77099991e-01, 2.53676713e-01, -7.84377813e-01,
          4.75037009e-01, -6.28264129e-01, 6.67439520e-01,
          -4.42952186e-01, 8.12199175e-01, -2.34888002e-01,
          9.26981091e-01, 5.96947502e-03, 9.52633500e-01, 2.45942697e-01,
          9.29336607e-01, 4.72596586e-01, 8.26736629e-01, 6.71875477e-01,
          6.85316384e-01, 8.24195027e-01, 4.94984806e-01, 9.12022114e-01,
          2.66629010e-01, 9.46654975e-01, 2.18682997e-02, 9.83548284e-01,
          -2.34417900e-01, 1., -5.03151476e-01, -8.57049406e-01,
          -6.50283217e-01, -7.23033071e-01, -7.61124611e-01,
          -5.34640372e-01, -7.92941689e-01, -3.43062013e-01,
          -7.81486690e-01, -1.57361194e-01, -7.27889001e-01,
          1.08461097e-01, -7.39889979e-01, 3.06021690e-01,
          -7.86506712e-01, 5.08036613e-01, -7.88688123e-01,
          7.04034626e-01, -7.45701313e-01, 8.50781083e-01,
          -6.38382375e-01, -2.94217505e-02, -5.73327780e-01,
          -2.98486594e-02, -3.92675191e-01, -3.09056006e-02,
          -2.11618602e-01, -2.94217505e-02, -2.49199793e-02,
          -1.97649002e-01, 1.20797098e-01, -1.11709803e-01,
          1.43041193e-01, -1.86541807e-02, 1.56647503e-01,
          7.83170164e-02, 1.34822905e-01, 1.71589896e-01, 1.10659301e-01,
          -6.67728186e-01, -5.91081321e-01, -5.54018974e-01,
          -6.77160084e-01, -3.95693004e-01, -6.75291419e-01,
          -2.84165502e-01, -5.38856506e-01, -4.10140097e-01,
          -5.14907181e-01, -5.65339327e-01, -5.20690084e-01,
          2.41788894e-01, -5.39110005e-01, 3.52422804e-01,
          -6.69896722e-01, 5.02614617e-01, -6.73640788e-01,
          6.24045730e-01, -5.89546978e-01, 5.16988397e-01,
          -5.26742518e-01, 3.67707908e-01, -5.15714526e-01,
          -3.15927714e-01, 4.76005495e-01, -1.94448099e-01,
          4.18971896e-01, -7.85415769e-02, 3.77710789e-01,
          6.48536906e-03, 4.00433004e-01, 9.90184769e-02, 3.66580188e-01,
          2.30654106e-01, 3.96448612e-01, 3.59087288e-01, 4.33870912e-01,
          2.43783206e-01, 5.07055283e-01, 1.25390097e-01, 5.39518178e-01,
          2.49449499e-02, 5.53206503e-01, -6.37342930e-02,
          5.56600213e-01, -1.86713994e-01, 5.33769429e-01,
          -2.64061511e-01, 4.73783702e-01, -7.63171688e-02,
          4.58918095e-01, 8.66059680e-03, 4.63917702e-01, 1.05613701e-01,
          4.46981013e-01, 3.06971610e-01, 4.37496990e-01, 1.12252802e-01,
          4.25049096e-01, 1.79724991e-02, 4.39172685e-01,
          -6.78077415e-02, 4.32964414e-01 ]
      - [ -8.95587981e-01, -4.42725301e-01, -8.83369684e-01,
          -2.03202099e-01, -8.39288712e-01, 2.83769593e-02,
          -7.91207671e-01, 2.61299789e-01, -7.20751286e-01,
          4.91301090e-01, -6.09767616e-01, 6.90811574e-01,
          -4.21644390e-01, 8.34846675e-01, -2.13491201e-01,
          9.36493218e-01, 2.26947907e-02, 9.64970887e-01, 2.52404898e-01,
          9.41050828e-01, 4.89615500e-01, 8.53138387e-01, 6.93694413e-01,
          7.05548227e-01, 8.35061312e-01, 4.99748886e-01, 9.16948378e-01,
          2.69105285e-01, 9.64141726e-01, 1.94884893e-02, 9.92367625e-01,
          -2.41550803e-01, 1., -4.94240612e-01, -7.87697673e-01,
          -6.37211084e-01, -6.79098725e-01, -7.33261883e-01,
          -5.24737895e-01, -7.65898526e-01, -3.56709212e-01,
          -7.38886714e-01, -2.11842507e-01, -6.76786005e-01,
          8.85105133e-02, -6.84014678e-01, 2.62838602e-01,
          -7.68299282e-01, 4.50881392e-01, -8.08918178e-01,
          6.38675511e-01, -7.68776894e-01, 7.80341029e-01,
          -6.57870114e-01, -5.30093014e-02, -5.47994077e-01,
          -5.22638410e-02, -3.98764014e-01, -5.25816195e-02,
          -2.53045410e-01, -5.30093014e-02, -1.01389602e-01,
          -2.10789502e-01, 5.52792102e-02, -1.22901499e-01,
          8.38100463e-02, -3.12827304e-02, 9.90804210e-02,
          6.06604405e-02, 8.07397664e-02, 1.52652398e-01, 5.77923506e-02,
          -5.93752086e-01, -5.05180180e-01, -5.00568688e-01,
          -5.61779022e-01, -3.73367697e-01, -5.71662724e-01,
          -2.72585899e-01, -4.94007289e-01, -3.73311102e-01,
          -4.57700104e-01, -5.00399888e-01, -4.53568190e-01,
          2.17597499e-01, -5.05874217e-01, 3.32938403e-01,
          -5.87303817e-01, 4.58336711e-01, -5.88489175e-01,
          5.58296919e-01, -5.29196620e-01, 4.62249398e-01,
          -4.75759387e-01, 3.36188287e-01, -4.74799097e-01,
          -3.13486099e-01, 4.28095698e-01, -1.92842200e-01,
          3.60755712e-01, -8.89495164e-02, 3.15484285e-01,
          -1.50270704e-02, 3.35584193e-01, 7.80307502e-02,
          3.03475112e-01, 2.17461199e-01, 3.41063708e-01, 3.64738613e-01,
          3.88063014e-01, 2.28957206e-01, 4.82906312e-01, 1.01457499e-01,
          5.18835008e-01, 2.02052807e-03, 5.28867602e-01,
          -8.24901834e-02, 5.26915073e-01, -1.87134504e-01,
          5.02698302e-01, -2.49188006e-01, 4.26171899e-01,
          -8.67204964e-02, 3.93038988e-01, -1.19778197e-02,
          3.93848389e-01, 8.19839016e-02, 3.85096014e-01, 3.05722713e-01,
          3.92139107e-01, 9.01746228e-02, 4.05389190e-01,
          -4.19401005e-03, 4.17049110e-01, -8.06143731e-02,
          4.09795105e-01 ]
      - [ -1., -5.74176371e-01, -9.92848992e-01, -3.03256512e-01,
          -9.76708472e-01, -4.39419709e-02, -9.29620981e-01,
          2.09367201e-01, -8.34273577e-01, 4.40948009e-01,
          -6.78915679e-01, 6.44186914e-01, -4.90655899e-01,
          8.13524783e-01, -2.61090487e-01, 9.19304490e-01,
          -2.91583296e-02, 9.49214876e-01, 1.76876903e-01,
          9.08030510e-01, 3.38496208e-01, 7.72652209e-01, 4.70741004e-01,
          6.19333625e-01, 5.91503084e-01, 4.36457098e-01, 6.79324389e-01,
          2.43501201e-01, 7.40076303e-01, 3.16617489e-02, 7.78965473e-01,
          -1.80236802e-01, 7.99697101e-01, -3.96693408e-01,
          -7.19309211e-01, -7.49007881e-01, -5.75558603e-01,
          -8.48240077e-01, -3.99002492e-01, -8.78036976e-01,
          -2.26704597e-01, -8.42008173e-01, -8.56235698e-02,
          -7.44549274e-01, 2.98267901e-01, -7.20988393e-01,
          4.19598401e-01, -7.81102479e-01, 5.56487978e-01,
          -7.81714499e-01, 6.76524818e-01, -7.30951071e-01,
          7.42524683e-01, -6.27048612e-01, 9.61489826e-02,
          -5.06243110e-01, 9.32510272e-02, -3.36154312e-01,
          9.52937827e-02, -1.63620502e-01, 9.61489826e-02,
          9.77796968e-03, -1.55654505e-01, 7.27761835e-02,
          -5.44157214e-02, 1.14240997e-01, 5.39949015e-02,
          1.54759198e-01, 1.49206698e-01, 1.27943903e-01, 2.28947595e-01,
          9.29438323e-02, -5.41253090e-01, -5.11975288e-01,
          -4.36695904e-01, -5.63580394e-01, -3.11320513e-01,
          -5.46364486e-01, -1.96840107e-01, -4.56721902e-01,
          -3.20302397e-01, -4.39263493e-01, -4.51481789e-01,
          -4.50855196e-01, 2.51134187e-01, -4.26511288e-01,
          3.71729612e-01, -5.01770079e-01, 4.95566100e-01,
          -4.94584203e-01, 5.83536923e-01, -4.29798692e-01,
          4.99399811e-01, -3.86488914e-01, 3.70573014e-01,
          -3.92658710e-01, -4.10014987e-01, 3.40299696e-01,
          -2.38719806e-01, 2.71393389e-01, -7.34750479e-02,
          2.46814400e-01, 2.63948105e-02, 2.79407889e-01, 1.29212201e-01,
          2.56962210e-01, 2.44970307e-01, 3.01866800e-01, 3.37141097e-01,
          3.75945985e-01, 2.34466806e-01, 5.46688676e-01, 1.13228299e-01,
          6.14115417e-01, 3.31645808e-03, 6.19953215e-01,
          -1.05370700e-01, 6.03586018e-01, -2.65775710e-01,
          5.28844297e-01, -3.58493596e-01, 3.52076799e-01,
          -8.45728591e-02, 3.55054706e-01, 1.73966791e-02,
          3.67228895e-01, 1.21985301e-01, 3.61038893e-01, 2.83361405e-01,
          3.83231401e-01, 1.17713198e-01, 4.81140703e-01, 1.21073099e-02,
          4.85809505e-01, -9.14526433e-02, 4.76458788e-01 ]
      - [ -1., -4.83823895e-01, -9.93484020e-01, -2.33761698e-01,
          -9.60323811e-01, 7.47659383e-03, -9.09068286e-01,
          2.41279200e-01, -8.16073418e-01, 4.64857787e-01,
          -6.79870129e-01, 6.65080786e-01, -4.76627707e-01,
          8.06585073e-01, -2.61289805e-01, 8.98686290e-01,
          -3.95547301e-02, 9.32016075e-01, 1.69704899e-01,
          9.08578992e-01, 3.53821695e-01, 8.25035512e-01, 5.28574228e-01,
          7.00895905e-01, 6.62632227e-01, 5.26828289e-01, 7.58575201e-01,
          3.40980411e-01, 8.25289309e-01, 1.33653000e-01, 8.64103973e-01,
          -7.68358037e-02, 8.88512075e-01, -2.89972693e-01,
          -7.55376577e-01, -6.35420680e-01, -6.21447206e-01,
          -7.51346290e-01, -4.37255710e-01, -8.05168808e-01,
          -2.38199398e-01, -7.90428519e-01, -6.18193187e-02,
          -7.18874872e-01, 1.90272003e-01, -6.82463586e-01,
          3.50747496e-01, -7.18322396e-01, 5.24496675e-01,
          -7.05050528e-01, 6.74809813e-01, -6.42557383e-01,
          7.71593690e-01, -5.15534580e-01, 6.37997016e-02,
          -5.54598629e-01, 6.29517063e-02, -4.37330514e-01,
          6.46076500e-02, -3.24815989e-01, 6.37997016e-02,
          -2.06322193e-01, -1.61403000e-01, -2.90471092e-02,
          -6.94342628e-02, -3.96106998e-03, 3.03571001e-02,
          1.68140791e-02, 1.27060294e-01, 9.54852533e-03, 2.13109106e-01,
          -6.56227581e-03, -5.43885887e-01, -5.32848716e-01,
          -4.25536305e-01, -5.83557189e-01, -3.09433609e-01,
          -5.84472418e-01, -2.13484704e-01, -5.05356193e-01,
          -3.13796610e-01, -4.93426710e-01, -4.28904086e-01,
          -4.96891290e-01, 2.80638099e-01, -4.63776410e-01,
          3.91392291e-01, -5.26954591e-01, 5.01686275e-01,
          -5.07938027e-01, 5.90754628e-01, -4.39878494e-01,
          4.91842091e-01, -4.23917115e-01, 3.81693810e-01,
          -4.38001096e-01, -3.10691386e-01, 4.17406797e-01,
          -1.92663595e-01, 2.66642213e-01, -6.57701418e-02,
          1.89747602e-01, 1.53455297e-02, 2.16650307e-01, 1.01088896e-01,
          2.00874507e-01, 1.99992001e-01, 2.86899090e-01, 2.60659099e-01,
          4.47900414e-01, 1.77604407e-01, 5.66108286e-01, 7.78997615e-02,
          6.10805988e-01, -1.54979201e-02, 6.15832627e-01,
          -1.05336502e-01, 6.05097890e-01, -2.20474198e-01,
          5.45810103e-01, -2.42605999e-01, 4.09372598e-01,
          -7.29925781e-02, 2.88836688e-01, 7.63845118e-03,
          2.92841285e-01, 9.09591019e-02, 2.96050310e-01, 1.96230501e-01,
          4.33749586e-01, 8.08096603e-02, 4.81154889e-01,
          -5.24530793e-03, 4.85380888e-01, -8.75073671e-02,
          4.73738909e-01 ]
      - [ -2.73133397e-01, -1.43850595e-01, -2.72143513e-01,
          -4.56510186e-02, -2.34351605e-01, 5.76256402e-02,
          -1.80331200e-01, 1.61785305e-01, -1.29894093e-01,
          2.81659693e-01, -7.63315931e-02, 4.18688387e-01,
          -1.53987696e-02, 5.59931993e-01, 6.34884164e-02,
          6.84400618e-01, 1.92683801e-01, 6.99824989e-01, 3.76586497e-01,
          6.61687613e-01, 5.83926022e-01, 5.57313681e-01, 7.68973708e-01,
          3.98208886e-01, 9.23108578e-01, 2.07872301e-01, 1.,
          -9.99649428e-03, 9.84082818e-01, -2.45166093e-01,
          9.32523787e-01, -4.76659805e-01, 8.70177627e-01,
          -7.07571208e-01, -5.25336623e-01, -3.28184396e-01,
          -5.71668088e-01, -4.10681814e-01, -5.29563487e-01,
          -4.53009605e-01, -4.67289001e-01, -4.68580902e-01,
          -4.03500587e-01, -4.64771897e-01, -2.99036086e-01,
          -5.64142883e-01, -1.71112403e-01, -6.91713393e-01,
          -3.03720590e-04, -7.67841399e-01, 1.94579706e-01,
          -7.72407174e-01, 3.68785113e-01, -7.27824271e-01,
          -3.07129413e-01, -3.36799800e-01, -3.02532107e-01,
          -2.02663794e-01, -3.06525290e-01, -6.52040169e-02,
          -3.07129413e-01, 7.54744485e-02, -2.65006989e-01,
          1.62212998e-01, -2.11097807e-01, 1.80332899e-01,
          -1.50652096e-01, 1.73615307e-01, -7.53461570e-02,
          1.27807900e-01, 1.13343596e-02, 8.53056908e-02,
          -4.49116498e-01, -2.05094397e-01, -4.33066994e-01,
          -2.61129111e-01, -3.70979905e-01, -2.91284412e-01,
          -2.84609914e-01, -2.82170594e-01, -3.44461888e-01,
          -2.34233305e-01, -4.04604286e-01, -2.00165793e-01,
          -9.44713317e-03, -4.26924586e-01, 4.18426804e-02,
          -5.08417785e-01, 1.26037806e-01, -5.38721919e-01,
          2.33902201e-01, -5.44658422e-01, 1.57433406e-01,
          -4.79068905e-01, 7.35543817e-02, -4.42960411e-01,
          -8.90167579e-02, 3.75300407e-01, -1.24077201e-01,
          3.48542601e-01, -1.14575200e-01, 3.14929396e-01,
          -5.95618412e-02, 3.15625399e-01, 6.79297000e-03,
          2.71924496e-01, 1.59238696e-01, 2.45213300e-01, 3.62960786e-01,
          2.10191101e-01, 2.18037307e-01, 3.39157194e-01, 8.77885371e-02,
          4.04886603e-01, 1.38281798e-02, 4.32207614e-01,
          -4.34219018e-02, 4.37416494e-01, -7.28595704e-02,
          4.14178491e-01, -5.95571101e-02, 3.72399896e-01,
          -8.53709430e-02, 3.68332595e-01, -3.37733291e-02,
          3.59756500e-01, 3.88690382e-02, 3.27492505e-01, 3.22320402e-01,
          2.28265107e-01, 4.68706489e-02, 3.28427494e-01,
          -2.58299708e-02, 3.54077101e-01, -8.05820525e-02,
          3.55478615e-01 ]
      - [ -8.71990681e-01, -4.52624202e-01, -8.75120580e-01,
          -2.04100102e-01, -8.71087611e-01, 3.59128192e-02,
          -8.33363593e-01, 2.68356711e-01, -7.50065982e-01,
          4.87918705e-01, -6.30262017e-01, 6.80085182e-01,
          -4.60725397e-01, 8.41540515e-01, -2.64733493e-01,
          9.54600215e-01, -3.87833603e-02, 1., 2.05722600e-01,
          9.91694391e-01, 4.21923190e-01, 8.95461082e-01, 5.92788279e-01,
          7.64597774e-01, 7.27008522e-01, 5.77603996e-01, 8.13572586e-01,
          3.52471888e-01, 8.55591416e-01, 9.13556516e-02, 8.79353225e-01,
          -1.71015397e-01, 8.84000123e-01, -4.33547914e-01,
          -7.16546714e-01, -6.95878625e-01, -6.33384109e-01,
          -8.40897381e-01, -4.66758490e-01, -8.71223986e-01,
          -3.01732302e-01, -8.36182415e-01, -1.51487604e-01,
          -7.61090398e-01, 1.47419006e-01, -7.56236315e-01,
          3.10883999e-01, -8.30562472e-01, 4.84904498e-01,
          -8.48810971e-01, 6.53246284e-01, -7.88250983e-01,
          7.37916410e-01, -6.37913823e-01, 6.80614309e-03,
          -5.57621181e-01, 6.39065588e-03, -4.00689989e-01,
          6.16649818e-03, -2.46870205e-01, 6.80614309e-03,
          -8.52948576e-02, -2.01592907e-01, 1.63841005e-02,
          -1.03639498e-01, 5.70431612e-02, 3.88434995e-03,
          9.10668075e-02, 1.09700799e-01, 6.59473911e-02, 2.09739402e-01,
          3.23273912e-02, -5.44715703e-01, -5.48949003e-01,
          -4.39132214e-01, -6.10818684e-01, -3.15807790e-01,
          -6.08540416e-01, -2.12301493e-01, -5.13685584e-01,
          -3.25357407e-01, -4.97902811e-01, -4.48420912e-01,
          -4.98910397e-01, 2.44863406e-01, -4.84584600e-01,
          3.59748006e-01, -5.61033726e-01, 4.77835596e-01,
          -5.63843191e-01, 5.67687690e-01, -4.95644808e-01,
          4.81810808e-01, -4.53955799e-01, 3.61561000e-01,
          -4.57097888e-01, -3.26649189e-01, 3.98384213e-01,
          -1.98320895e-01, 3.30865592e-01, -8.41958374e-02,
          2.95747489e-01, -3.77628300e-03, 3.21796805e-01,
          8.40586722e-02, 3.03378493e-01, 2.02557102e-01, 3.48533094e-01,
          3.13337088e-01, 4.27579701e-01, 2.00139895e-01, 5.33681571e-01,
          8.05085972e-02, 5.68526328e-01, -1.25941699e-02,
          5.74843526e-01, -1.01282798e-01, 5.61229408e-01,
          -2.11480305e-01, 5.19806921e-01, -2.71822602e-01,
          4.02535588e-01, -8.84826928e-02, 3.71925503e-01,
          -5.87612577e-03, 3.83630008e-01, 8.27460364e-02,
          3.82284790e-01, 2.61023611e-01, 4.21568990e-01, 8.04870129e-02,
          4.56012011e-01, -8.91685020e-03, 4.61647600e-01,
          -9.17809606e-02, 4.45433110e-01 ]
      - [ -9.47776794e-01, -5.35000622e-01, -9.76680696e-01,
          -3.02090108e-01, -1., -7.90514499e-02, -9.91839290e-01,
          1.37335002e-01, -9.27300572e-01, 3.36358786e-01,
          -7.93601871e-01, 5.00651777e-01, -5.92630327e-01,
          6.15261674e-01, -3.87242705e-01, 7.02635705e-01,
          -1.82884201e-01, 7.61394918e-01, -7.01570697e-03,
          7.85786927e-01, 1.54876903e-01, 7.35121489e-01, 2.83862501e-01,
          6.54412329e-01, 3.88444901e-01, 5.26648879e-01, 4.67507213e-01,
          3.85216713e-01, 5.37282586e-01, 2.33264506e-01, 5.96028090e-01,
          7.46202096e-02, 6.44323885e-01, -9.75844637e-02,
          -5.49934030e-01, -6.50417924e-01, -3.93165201e-01,
          -7.59000719e-01, -1.89981401e-01, -7.89373219e-01,
          9.06091090e-03, -7.35667706e-01, 1.57734394e-01,
          -6.18872404e-01, 2.60488302e-01, -5.56393683e-01,
          4.05154586e-01, -5.75735390e-01, 5.54963171e-01,
          -5.43589890e-01, 6.51883781e-01, -4.39093292e-01,
          6.57863021e-01, -2.87225097e-01, 1.93312004e-01,
          -4.48554397e-01, 1.91904604e-01, -3.40163887e-01,
          1.94243103e-01, -2.30832800e-01, 1.93312004e-01,
          -1.16126902e-01, -8.47154781e-02, -2.06587091e-02,
          2.63686897e-03, 2.03424003e-02, 9.65736732e-02, 6.27662316e-02,
          1.72433302e-01, 7.03165233e-02, 2.43950799e-01, 6.60682619e-02,
          -3.62821490e-01, -5.35149693e-01, -2.48395503e-01,
          -5.69472075e-01, -1.47783205e-01, -5.54983675e-01,
          -8.44688118e-02, -4.70312804e-01, -1.74105093e-01,
          -4.67110187e-01, -2.72224486e-01, -4.90660906e-01,
          2.98884988e-01, -3.47650707e-01, 3.99545312e-01,
          -3.70340794e-01, 4.82253402e-01, -3.33963811e-01,
          5.20822525e-01, -2.45134100e-01, 4.50434506e-01,
          -2.53656209e-01, 3.67778003e-01, -2.91599900e-01,
          -3.17375988e-01, 2.99815089e-01, -1.48385197e-01,
          2.59853512e-01, -2.54797097e-02, 2.39949301e-01,
          2.85534393e-02, 2.75765896e-01, 8.89496803e-02, 2.69682705e-01,
          1.28620505e-01, 3.39897186e-01, 1.51949093e-01, 4.34673309e-01,
          9.67488363e-02, 3.93438101e-01, 5.15379310e-02, 3.65441203e-01,
          -7.39629800e-03, 3.53353888e-01, -6.85707033e-02,
          3.33741486e-01, -1.73698604e-01, 3.16481113e-01,
          -2.64914304e-01, 2.94560909e-01, -5.00186309e-02,
          3.16834211e-01, 7.99969863e-03, 3.36842507e-01, 6.32228628e-02,
          3.49255294e-01, 1.14003502e-01, 4.04725790e-01, 7.65338689e-02,
          2.82186002e-01, 2.20643505e-02, 2.67423600e-01,
          -3.73353101e-02, 2.53344804e-01 ]
      - [ -6.00954294e-01, -2.69095510e-01, -5.94858289e-01,
          -8.21359530e-02, -5.50767601e-01, 1.07994102e-01,
          -4.79352713e-01, 2.81647086e-01, -3.89462501e-01,
          4.49116588e-01, -2.85420209e-01, 6.06581628e-01,
          -1.61678806e-01, 7.26852775e-01, -2.79333796e-02,
          8.28741610e-01, 1.34546995e-01, 8.37759197e-01, 3.12980890e-01,
          7.95481682e-01, 5.22030890e-01, 6.81071520e-01, 7.29561627e-01,
          5.25096297e-01, 8.97251785e-01, 3.31571788e-01, 9.90653276e-01,
          9.81597900e-02, 1., -1.50106400e-01, 9.74749327e-01,
          -4.08215314e-01, 9.32364404e-01, -6.57904685e-01,
          -6.62583709e-01, -5.06686211e-01, -6.22302592e-01,
          -5.81659913e-01, -5.26479125e-01, -6.10305607e-01,
          -4.19011712e-01, -6.04780912e-01, -3.21790308e-01,
          -5.74446619e-01, -1.01057902e-01, -6.45126283e-01,
          4.41388898e-02, -7.54892290e-01, 2.11646602e-01,
          -8.19101989e-01, 4.01826411e-01, -8.25303674e-01,
          5.65157712e-01, -7.56584704e-01, -1.86398506e-01,
          -4.32279110e-01, -1.83020398e-01, -2.74287611e-01,
          -1.84053600e-01, -1.15387298e-01, -1.86398506e-01,
          4.30553593e-02, -2.24770695e-01, 1.50793403e-01,
          -1.59265593e-01, 1.68250903e-01, -8.91898870e-02,
          1.70821100e-01, -5.72159002e-03, 1.38706803e-01,
          7.95331374e-02, 1.05354398e-01, -5.25851190e-01,
          -3.59798789e-01, -4.87424195e-01, -4.40944314e-01,
          -3.93736511e-01, -4.55798686e-01, -2.87758112e-01,
          -3.90110314e-01, -3.73527497e-01, -3.58306915e-01,
          -4.64493185e-01, -3.33979696e-01, 9.38062370e-02,
          -4.88613009e-01, 1.57823205e-01, -6.06093109e-01,
          2.63429999e-01, -6.31613016e-01, 3.79746795e-01,
          -5.90971529e-01, 2.95887887e-01, -5.29278874e-01,
          1.90699801e-01, -4.99902487e-01, -2.34857902e-01,
          4.07278091e-01, -1.95127800e-01, 3.48255098e-01,
          -1.18218198e-01, 3.06896597e-01, -3.54596302e-02,
          3.08613896e-01, 4.92126904e-02, 2.69897908e-01, 2.06976801e-01,
          2.63866603e-01, 3.89293790e-01, 2.74266601e-01, 2.51272500e-01,
          4.30896491e-01, 1.18702203e-01, 5.07803917e-01, 2.30165198e-02,
          5.33204317e-01, -6.34291470e-02, 5.41164577e-01,
          -1.56433299e-01, 4.99021500e-01, -1.93757594e-01,
          4.08915311e-01, -9.98895913e-02, 3.69815707e-01,
          -1.70026794e-02, 3.61956000e-01, 7.13968575e-02,
          3.33846211e-01, 3.39984804e-01, 2.93591499e-01, 8.21557269e-02,
          3.96180391e-01, -8.47301818e-03, 4.22738910e-01,
          -9.19364989e-02, 4.28443998e-01 ]
      - [ -9.79157627e-01, -3.74923408e-01, -9.95942891e-01,
          -1.66686296e-01, -1., 3.95625494e-02, -9.80459690e-01,
          2.42500201e-01, -9.21239614e-01, 4.23848510e-01,
          -7.93752491e-01, 5.73706627e-01, -5.83485603e-01,
          6.68748081e-01, -3.53505313e-01, 7.26010025e-01,
          -1.35460094e-01, 7.62552023e-01, 6.48538619e-02,
          7.87840426e-01, 2.60944903e-01, 7.84703076e-01, 4.52147901e-01,
          7.45695889e-01, 5.86424887e-01, 6.30008221e-01, 6.74867988e-01,
          4.74948198e-01, 7.42665708e-01, 3.01083893e-01, 7.94337273e-01,
          1.31224900e-01, 8.39015186e-01, -3.48816216e-02,
          -6.62801325e-01, -5.99523723e-01, -5.13736188e-01,
          -6.90403521e-01, -3.35280091e-01, -7.39598393e-01,
          -1.58439994e-01, -6.99402988e-01, 1.37189804e-02,
          -6.35247827e-01, 2.77651608e-01, -5.86744010e-01,
          4.39495504e-01, -5.78153789e-01, 5.97060084e-01,
          -5.41446686e-01, 7.22142100e-01, -4.53685790e-01,
          7.79703379e-01, -3.16847295e-01, 1.26944497e-01,
          -4.47954893e-01, 1.24757104e-01, -3.89191598e-01,
          1.27306595e-01, -3.36448491e-01, 1.26944497e-01,
          -2.72370696e-01, -9.93929282e-02, -4.78371195e-02,
          -1.51773002e-02, -3.84463891e-02, 6.29658774e-02,
          -3.31538096e-02, 1.28053099e-01, -1.42246997e-02,
          1.93494394e-01, -3.87819903e-03, -4.87392187e-01,
          -4.61199105e-01, -3.68154407e-01, -5.18104196e-01,
          -2.54574090e-01, -5.08829176e-01, -1.67174906e-01,
          -4.20356303e-01, -2.68642187e-01, -4.14791793e-01,
          -3.83635402e-01, -4.24047112e-01, 2.95280010e-01,
          -3.31346095e-01, 4.07817602e-01, -3.85265797e-01,
          5.16075373e-01, -3.48532587e-01, 5.95412672e-01,
          -2.57006586e-01, 4.97960508e-01, -2.60430515e-01,
          3.87549311e-01, -2.90713698e-01, -3.44394892e-01,
          3.06769699e-01, -1.81039497e-01, 1.62629396e-01,
          -3.78398895e-02, 1.03774801e-01, 2.30444893e-02,
          1.28424793e-01, 8.55904669e-02, 1.25630200e-01, 1.62764207e-01,
          2.21595898e-01, 2.20092997e-01, 3.90344113e-01, 1.22940898e-01,
          3.79375786e-01, 3.84230986e-02, 3.66627008e-01,
          -2.65471600e-02, 3.61026108e-01, -9.48463008e-02,
          3.51014405e-01, -2.19097495e-01, 3.42381209e-01,
          -2.84769207e-01, 2.95239389e-01, -6.22681193e-02,
          2.12661296e-01, 3.12674395e-03, 2.20349595e-01, 6.34136572e-02,
          2.34322503e-01, 1.71194002e-01, 3.60243708e-01, 5.74009791e-02,
          2.63114810e-01, -4.57613403e-03, 2.53174186e-01,
          -7.07991198e-02, 2.50543892e-01 ]
      - [ -1., -5.19094825e-01, -9.98821318e-01, -2.49201596e-01,
          -9.73538697e-01, 1.42475804e-02, -9.35050488e-01,
          2.66493499e-01, -8.33940804e-01, 4.87721294e-01,
          -6.79764390e-01, 6.86329305e-01, -4.87071902e-01,
          8.40632915e-01, -2.79346913e-01, 9.41134810e-01,
          -7.04931095e-02, 9.78225529e-01, 1.23606697e-01,
          9.49137807e-01, 2.90780693e-01, 8.39302421e-01, 4.44783390e-01,
          6.87355518e-01, 5.70817292e-01, 4.93063509e-01, 6.61775291e-01,
          2.86710292e-01, 7.25509822e-01, 6.44250512e-02, 7.79442489e-01,
          -1.56058997e-01, 7.98877776e-01, -3.92304510e-01,
          -7.19436526e-01, -7.31487691e-01, -5.69146574e-01,
          -7.97344089e-01, -3.98962587e-01, -8.16690326e-01,
          -2.31642306e-01, -7.84801722e-01, -8.76447037e-02,
          -7.05386221e-01, 2.88620889e-01, -6.66716993e-01,
          4.07459289e-01, -7.20999420e-01, 5.38819492e-01,
          -7.39849925e-01, 6.58461273e-01, -7.15282977e-01,
          7.43433774e-01, -6.31974220e-01, 9.46834534e-02,
